vaccines -0.281732 0.333786 -0.024340 -0.034711 0.037717 -0.298533 -0.010093 -0.136081 0.082794 -0.026012 -0.264625 -0.095663 0.153850 -0.033335 -0.446510 0.154774 -0.228802 -0.151096 -0.142954 0.266173 -0.065127 -0.144959 -0.187680 -0.143051 0.078844 -0.212879 0.121373 0.068817 0.008753 -0.021418 0.012081 -0.322277 -0.283026 -0.258130 -0.008036 0.386518 0.269701 0.392414 0.264871 -0.090410 0.298623 -0.286144 0.210255 0.098980 -0.046095 0.042696 -0.170478 0.181019 -0.626426 -0.008357 -0.439772 0.249517 0.160721 0.029884 -0.026262 0.554870 0.313198 -0.249440 0.048374 -0.378859 0.519517 -0.093712 0.062834 -0.196684 0.326841 0.008735 0.097262 -0.121315 -0.058321 -0.274346 0.488238 0.158684 0.101785 -0.083413 0.034326 0.210335 0.270115 0.230176 0.339755 0.081058 0.073691 -0.063513 0.256812 -0.067532 0.019417 0.159136 -0.040237 0.000091 -0.180655 -0.298136 -0.062853 -0.051668 0.013016 0.305878 -0.157153 0.345178 -0.046170 -0.122174 -0.293820 -0.004149 0.222318 0.221681 0.004142 0.128641 -0.070222 0.268840 0.173275 0.194544 -0.386218 0.019813 -0.007553 -0.082471 0.148479 -0.045735 -0.012307 0.055142 0.418978 -0.157101 0.188799 0.042641 0.259401 0.159762 -0.354250 0.285725 -0.120760 0.078157 -0.087765 -0.012973 0.240137 -0.110057 0.395712 0.179999 -0.223308 -0.111458 0.434176 0.341522 -0.277002 0.274261 -0.035536 -0.027573 -0.160065 -0.229926 0.203671 0.148650 -0.078314 -0.206120 -0.351752 -0.435550 -0.013433 -0.038462 -0.091033 0.003322 0.005963 -0.096561 0.016138 -0.203016 -0.338368 -0.162126 0.296649 -0.051239 -0.346878 0.462064 0.244164 0.041541 0.031100 0.149467 0.084789 -0.266793 0.091524 -0.175015 0.051090 -0.040557 0.165052 0.084726 -0.219835 0.002920 -0.140052 -0.584903 -0.244912 0.275983 0.353419 0.062255 0.344022 0.103196 0.207090 0.208864 0.314779 -0.235198 -0.204468 0.324252 0.018536 0.008648 -0.066579 -0.022459 0.236668 -0.247708 0.297745 0.171451 -0.048725 -0.077581 0.076753 -0.045797 -0.518312 0.013798 -0.140669 0.148813 0.112875 0.078467 0.175623 -0.140733 0.302945 0.127538 -0.205932 0.131184 -0.487150 0.338177 -0.246867 0.057704 -0.251086 -0.427890 0.145643 -0.048230 -0.013946 0.080650 0.019343 0.065664 0.107492 0.255487 0.000298 0.285745 0.020543 -0.536097 -0.279332 0.145272 0.318195 -0.230006 -0.205397 -0.028382 0.424549 0.404253 -0.087660 -0.016398 -0.275322 -0.250689 0.285971 -0.232413 0.070717 0.121026 -0.041277 -0.063495 -0.499693 -0.099849 0.009404 -0.071313 0.240458 0.039577 -0.207195 -0.159725 0.181823 -0.262935 0.132230 0.413415 0.261718 -0.112868 -0.209452 -0.051758 0.098503 -0.056951 -0.267309 -0.251941 -0.133443 0.193666 0.009671 0.010791 -0.031387 -0.090076 0.092850 -0.260552 -0.012840 0.218694 0.321184 0.010576 -0.106979 0.497122 -0.003096 -0.014070 -0.085399 -0.258837 0.130869 0.078822 0.069470 0.023706 -0.360014 0.376364 -0.104000 0.257505 -0.368747 -0.079590 -0.400996 0.154781
the -0.219398 0.003209 -0.025234 -0.007731 0.155449 -0.080720 0.262275 -0.011058 -0.146581 -0.105287 -0.157408 -0.098001 -0.005361 -0.097511 0.087056 0.003416 -0.120556 0.057700 -0.045302 0.142624 0.200147 -0.236121 -0.280767 0.089667 -0.386889 0.088706 -0.063866 -0.037808 0.001868 0.057450 -0.097770 -0.039995 -0.090972 -0.138434 -0.250459 0.278002 -0.115012 -0.086346 0.185015 -0.163555 -0.046351 -0.079636 0.004498 -0.132536 0.114055 -0.232701 0.019553 -0.036213 -0.395377 0.279204 -0.291439 0.267852 -0.030861 0.278977 -0.294866 0.082761 0.094453 -0.111412 0.165134 -0.059679 0.010130 -0.263655 0.110316 -0.068176 0.102997 0.208348 0.168203 -0.426931 -0.126662 -0.162214 0.397628 0.230126 -0.231649 0.143417 -0.103006 0.063973 0.049615 0.030881 0.100214 0.247181 -0.320802 -0.084203 0.214885 -0.112136 -0.175473 -0.042235 -0.176957 0.051640 -0.189191 -0.134245 -0.073265 -0.113419 -0.041459 -0.012667 -0.063777 0.316180 0.267612 -0.024909 -0.005854 0.056648 0.039804 0.230921 0.026375 -0.166375 0.125199 0.293263 0.263811 0.045729 -0.444293 -0.272899 0.105484 0.003047 -0.076077 -0.210697 0.031606 -0.182580 0.067052 -0.150071 -0.193764 -0.194515 0.262733 0.123608 -0.188363 0.083962 -0.101392 -0.180579 -0.039299 0.192996 0.258544 -0.386492 0.040963 0.184725 -0.114254 -0.112722 0.190393 -0.002828 -0.006173 -0.089465 -0.248554 -0.018246 -0.065706 0.039174 -0.048092 0.067839 -0.186605 -0.004163 -0.534479 -0.199779 -0.054341 0.105672 0.213684 -0.020002 -0.063890 -0.004204 0.141776 -0.005340 -0.407602 0.025148 0.124472 -0.022361 -0.163560 0.234718 0.127139 0.126385 0.062069 0.322100 0.137958 0.013325 0.140362 0.236662 -0.004632 -0.279516 -0.085938 0.055291 -0.214184 0.065212 -0.011592 -0.176819 -0.322321 0.253641 0.063889 0.011604 0.161463 -0.089450 -0.057300 -0.127020 0.189402 0.023164 -0.072076 0.121758 -0.213891 -0.004990 0.125885 -0.161238 0.101389 -0.129942 -0.024694 0.150143 0.122675 -0.188343 -0.144690 -0.000278 -0.219348 0.082049 0.160685 0.239593 0.341564 0.014978 0.080676 -0.043774 0.085746 -0.125930 -0.004411 0.226300 -0.213933 0.353300 -0.157007 0.284694 -0.310194 -0.051336 0.020446 -0.119613 -0.008669 -0.097538 -0.220454 -0.015074 0.152164 -0.013770 -0.202006 0.053867 -0.132795 -0.237196 0.055092 -0.139763 0.172645 0.080377 -0.017017 0.007332 0.320508 0.200829 0.041002 -0.015979 -0.075872 -0.466098 0.043186 -0.059075 -0.197667 0.250916 -0.196602 0.080227 -0.325236 0.082943 0.164899 -0.133590 0.240965 -0.253834 -0.082361 -0.078612 0.308454 -0.207320 0.045099 -0.008623 0.004478 -0.319979 -0.192618 -0.282896 -0.158146 0.126397 0.108623 -0.192688 -0.203245 0.192840 -0.088890 0.156400 0.070137 0.111943 -0.070021 0.215185 -0.175243 -0.053211 0.413718 0.243597 0.129869 0.384421 -0.292764 0.259008 0.040090 -0.324079 0.265335 0.330326 -0.066968 0.385293 -0.177581 0.191412 -0.205338 0.280360 -0.225917 0.034666 -0.253114 0.148784
to -0.185351 0.035021 0.056961 0.064229 0.160136 -0.059820 0.141275 0.021412 0.007366 0.053123 -0.210728 -0.054451 0.013287 -0.114730 0.014437 -0.005769 -0.002772 0.014955 0.067983 -0.027980 0.090884 -0.057410 -0.321883 0.028796 -0.004298 -0.044116 0.030242 0.062531 -0.105872 -0.035220 0.176949 0.036099 -0.195803 -0.157575 -0.293012 0.074347 0.005605 0.048380 0.158417 -0.052399 0.051853 -0.111243 0.037117 -0.125634 0.063983 -0.138276 -0.058419 -0.012435 -0.358299 0.169329 -0.237849 0.238837 0.064408 0.282950 -0.095838 0.150727 0.210170 -0.101983 0.164725 -0.126971 0.157849 -0.227748 -0.016741 -0.187563 0.167014 0.136383 0.154971 -0.196798 -0.017028 -0.237061 0.301524 0.028685 -0.182400 0.132900 -0.207035 -0.051129 0.144430 0.101743 0.111957 0.076481 -0.131103 -0.060657 0.146303 -0.166347 -0.106703 0.005828 -0.015468 0.077726 -0.340287 -0.052864 -0.119525 0.104230 -0.070477 0.087903 -0.183626 0.351520 0.225144 -0.042892 -0.012318 0.049743 0.087165 0.189506 0.009834 0.052868 0.070057 0.134997 0.206564 -0.043589 -0.410038 -0.342235 0.061760 0.062916 0.003665 -0.111109 0.011018 -0.074732 0.111607 -0.137121 0.024875 -0.158244 0.032337 0.084814 -0.183464 0.153343 -0.146216 -0.129060 -0.006577 -0.074196 0.060531 -0.462058 0.063774 0.222104 -0.222415 -0.033241 0.230879 0.056060 -0.045536 -0.021589 -0.057744 0.043337 -0.017094 0.103471 0.057191 0.053809 -0.019308 -0.067658 -0.467437 -0.081816 -0.099095 0.092685 -0.051180 0.051704 -0.034517 -0.050723 0.087459 -0.109808 -0.147257 -0.043868 0.168851 0.023399 0.041021 0.083235 0.071525 0.061357 0.018807 0.167509 0.022307 -0.093066 0.238926 0.077286 0.122661 -0.240517 0.030208 0.004808 -0.217670 0.101485 -0.017877 -0.172732 -0.358831 0.169830 0.223614 -0.053512 0.046352 -0.060174 -0.229835 -0.027103 0.075726 -0.042375 -0.044856 0.072669 -0.179865 -0.052514 0.091503 -0.167501 0.261250 -0.082483 0.017611 0.246561 0.092093 -0.129599 0.126972 0.044743 -0.274447 0.018791 0.027158 0.005897 0.144312 -0.091062 0.159523 -0.076847 0.146043 -0.070519 -0.098587 0.143301 -0.233413 0.252169 -0.027514 0.209151 -0.120794 -0.183510 -0.133818 -0.081300 0.086850 -0.088352 -0.244848 0.098044 0.011323 0.059427 -0.225934 -0.072644 -0.141453 -0.054047 -0.014430 -0.028238 0.127140 -0.078595 0.075572 -0.035206 0.380948 0.006005 0.154390 -0.056789 -0.222257 -0.105202 -0.006832 -0.091898 -0.151283 0.138828 -0.132603 0.081853 -0.360114 0.050186 0.163714 0.087291 0.117527 -0.070961 -0.026344 -0.101412 0.218114 -0.179180 0.068702 0.122664 -0.040300 -0.285237 -0.167648 -0.122215 -0.099858 0.084550 -0.163329 -0.300798 -0.204548 0.088708 -0.007452 0.058477 0.034804 0.000208 -0.089387 -0.082132 -0.195284 0.069556 0.229186 0.066895 0.031851 0.355244 -0.239338 0.071449 0.035157 -0.069495 0.101177 0.219737 -0.020058 0.288116 -0.126567 0.121545 -0.131332 0.292706 -0.184271 -0.094520 -0.192153 0.092732
vaccine -0.260625 0.112218 -0.044203 -0.007331 0.014756 -0.139273 0.178353 0.003757 -0.111574 -0.145895 -0.144366 -0.105718 0.031447 -0.054250 -0.080897 0.123902 -0.118213 -0.012827 -0.115295 0.231147 0.091871 -0.252744 -0.196614 -0.021270 -0.288677 0.062498 -0.030940 0.026451 0.030251 0.079938 -0.184876 -0.148346 -0.067882 -0.068389 -0.129163 0.310338 -0.011752 -0.005821 0.250210 -0.100431 0.041436 -0.128148 0.122070 0.019899 0.039993 -0.090440 0.026313 0.016712 -0.433791 0.173034 -0.331162 0.164286 0.044516 0.180813 -0.248756 0.286606 0.135527 -0.153553 0.089248 -0.077150 0.214332 -0.186862 0.172301 -0.046155 0.153371 0.121992 0.080088 -0.353824 -0.149272 -0.185052 0.369987 0.174279 -0.082705 -0.002345 0.012142 0.099004 0.019234 0.101674 0.214561 0.196938 -0.232388 -0.111994 0.227009 -0.039257 -0.089339 0.030238 -0.152411 0.001192 -0.082394 -0.230250 -0.055338 -0.151954 0.045694 0.058995 -0.003035 0.345915 0.161976 -0.118117 -0.188350 0.058315 0.164809 0.259826 -0.028853 -0.167143 0.081783 0.336743 0.236591 0.100103 -0.382034 -0.087957 0.046934 -0.013943 0.049725 -0.151878 0.053900 -0.073111 0.174210 -0.144178 -0.117237 -0.061002 0.313084 0.168817 -0.266043 0.067670 -0.101252 -0.034890 -0.112337 0.166011 0.349436 -0.172354 0.127520 0.049261 -0.081594 -0.155009 0.217126 0.112198 -0.116639 0.032553 -0.181445 -0.043960 -0.177837 -0.100621 0.030469 0.055062 -0.167171 -0.075486 -0.335969 -0.292943 -0.021430 0.044316 0.190429 -0.029991 -0.066646 0.027257 0.058922 -0.014398 -0.382776 -0.028022 0.117191 -0.007876 -0.258942 0.276405 0.149318 0.113646 0.037046 0.312906 0.143497 -0.063582 0.005904 0.028438 -0.074718 -0.190661 -0.062739 0.103000 -0.161107 -0.021893 -0.028945 -0.266836 -0.235191 0.228036 0.078716 0.109288 0.232847 -0.005769 0.108050 -0.025920 0.285020 -0.049431 -0.143181 0.058369 -0.117930 -0.035782 0.051013 -0.040408 0.025116 -0.157308 0.087173 0.119632 0.017994 -0.191761 -0.190093 -0.094871 -0.201284 0.043600 0.090182 0.258621 0.259556 0.069649 0.066913 -0.057806 0.150896 0.013467 -0.002011 0.211649 -0.250333 0.267893 -0.263386 0.209658 -0.287364 -0.171343 0.129736 -0.098171 -0.035315 -0.001494 -0.113559 -0.021077 0.144939 0.046054 -0.129539 0.130314 -0.028283 -0.344340 -0.036442 -0.063361 0.206009 0.005300 -0.109951 0.003705 0.290724 0.325860 -0.013950 0.009138 -0.121319 -0.465658 0.208519 -0.021384 -0.031337 0.206765 -0.064341 0.022892 -0.306701 0.027022 0.087528 -0.059739 0.212477 -0.177026 -0.117674 -0.114256 0.284743 -0.182416 0.065324 0.079888 0.122538 -0.216649 -0.119406 -0.227998 -0.101165 0.064147 0.047936 -0.206906 -0.165794 0.286779 -0.033278 0.118550 0.063299 0.043487 -0.035169 0.124435 -0.080191 0.046843 0.344931 0.242511 0.028519 0.387913 -0.141620 0.201537 -0.022278 -0.402540 0.283626 0.226860 -0.065259 0.297335 -0.245547 0.284277 -0.166661 0.288975 -0.225771 0.107758 -0.263971 0.144869
vaxwithme -0.215790 0.414708 -0.088791 -0.148323 -0.159026 -0.335984 -0.176606 -0.151870 0.122878 -0.106879 -0.084059 -0.042192 0.143164 0.064689 -0.632393 0.251588 -0.242163 -0.229398 -0.239727 0.295119 -0.292096 -0.125318 0.085642 -0.234463 0.257119 -0.253813 0.159944 0.093156 0.113475 0.035675 -0.142069 -0.427628 -0.201728 -0.153260 0.289714 0.314707 0.402562 0.442888 0.232093 0.031742 0.374122 -0.296740 0.271834 0.316341 -0.170513 0.211336 -0.166706 0.229590 -0.482931 -0.246586 -0.297678 0.007131 0.205906 -0.246641 0.104344 0.634514 0.214300 -0.195949 -0.144375 -0.337417 0.624367 0.142852 0.143590 -0.135600 0.305815 -0.193174 -0.033524 0.098312 -0.067369 -0.189951 0.328481 0.145477 0.334076 -0.278171 0.279317 0.290572 0.192446 0.223661 0.375135 -0.037357 0.294849 -0.081635 0.129307 0.049921 0.177281 0.230273 0.011732 -0.102184 0.092462 -0.346401 -0.041028 -0.173612 0.126344 0.334619 -0.083406 0.100483 -0.317319 -0.179139 -0.505171 -0.052134 0.272565 0.074098 -0.028544 0.115570 -0.188767 0.163759 0.028156 0.271831 -0.071177 0.466358 -0.061421 -0.178460 0.247347 0.112930 0.025103 0.167567 0.505432 -0.070826 0.262681 0.240842 0.270044 0.133114 -0.295084 0.204606 -0.034976 0.298467 -0.132251 -0.054561 0.234454 0.349872 0.461665 -0.055971 -0.070991 -0.120088 0.376082 0.414748 -0.346519 0.393370 0.073035 -0.062453 -0.277842 -0.418210 0.251256 0.143491 -0.046079 -0.245191 0.082445 -0.451607 0.083849 -0.234011 -0.132282 -0.027918 0.016675 -0.079765 -0.099622 -0.180501 -0.224446 -0.198907 0.201669 -0.051567 -0.466882 0.419543 0.215520 -0.046159 0.019530 0.018254 0.090316 -0.293770 -0.184877 -0.435074 -0.038404 0.118381 0.241792 0.152889 -0.025829 -0.115182 -0.145567 -0.622084 0.026432 0.133046 0.270254 0.168813 0.404315 0.117667 0.510319 0.344845 0.264039 -0.289901 -0.254022 0.297379 0.218709 0.024481 -0.189075 0.215393 0.096180 -0.253934 0.472980 -0.071018 -0.158215 0.090692 0.060608 -0.110231 -0.403560 -0.077799 -0.265056 0.149039 -0.024791 0.130569 0.109780 -0.140509 0.292940 0.241391 -0.139290 -0.013884 -0.408815 0.134578 -0.327972 -0.142074 -0.160012 -0.447611 0.300112 -0.004970 -0.051443 0.187512 0.291019 -0.012861 0.074472 0.364033 0.191905 0.448246 0.168007 -0.613125 -0.313646 0.255781 0.251495 -0.255408 -0.355086 0.014238 0.196972 0.532117 -0.240365 0.007652 -0.166526 -0.094795 0.468178 -0.103777 0.309876 0.011072 0.125995 -0.165286 -0.315149 -0.225572 -0.190725 -0.033540 0.205800 0.178191 -0.265553 -0.138013 0.041498 -0.146684 0.140990 0.451196 0.436374 0.151953 -0.102925 0.142110 0.222728 -0.176877 -0.269928 -0.094659 0.025607 0.184539 0.040232 -0.085506 -0.090757 -0.174911 0.215766 -0.381000 0.198525 0.325164 0.105625 -0.075069 -0.250498 0.292248 0.342518 -0.140063 -0.146734 -0.187280 0.068950 -0.165378 0.119403 -0.290506 -0.376730 0.379332 0.065186 0.044543 -0.246470 -0.048834 -0.311672 0.080370
vaxxed -0.244846 0.438621 -0.080408 -0.141788 -0.140268 -0.355372 -0.163732 -0.156691 0.126944 -0.095073 -0.120470 -0.053752 0.156219 0.049930 -0.656402 0.256645 -0.252980 -0.234931 -0.237403 0.304660 -0.282843 -0.133750 0.041548 -0.239500 0.264163 -0.272511 0.171351 0.101410 0.100709 0.026612 -0.117264 -0.439330 -0.237277 -0.181659 0.261429 0.343721 0.419263 0.473840 0.258705 0.018813 0.396976 -0.324027 0.284376 0.306231 -0.165089 0.199870 -0.182256 0.239147 -0.549060 -0.230657 -0.343219 0.045321 0.218202 -0.219161 0.097458 0.680433 0.251306 -0.219240 -0.123592 -0.371458 0.662257 0.115627 0.142472 -0.162792 0.337785 -0.176933 -0.014754 0.075057 -0.067452 -0.227685 0.380265 0.153132 0.319536 -0.267634 0.254424 0.299838 0.223392 0.245987 0.400618 -0.026120 0.285901 -0.091081 0.162340 0.027764 0.163529 0.241013 0.009388 -0.093102 0.048355 -0.363083 -0.053882 -0.161833 0.115919 0.359305 -0.109163 0.154694 -0.295928 -0.188335 -0.516433 -0.046977 0.287572 0.105124 -0.026467 0.135402 -0.186567 0.186501 0.060183 0.275955 -0.130233 0.426878 -0.057594 -0.173835 0.252816 0.100086 0.023921 0.165212 0.538411 -0.091987 0.278851 0.227782 0.281522 0.145114 -0.329947 0.237609 -0.056358 0.287734 -0.134482 -0.064897 0.249106 0.297922 0.488536 -0.019335 -0.106669 -0.124712 0.417911 0.439557 -0.365725 0.404072 0.066787 -0.059396 -0.284152 -0.420249 0.264043 0.154795 -0.047449 -0.263120 0.015712 -0.483684 0.073165 -0.222878 -0.148480 -0.021864 0.015122 -0.088848 -0.090672 -0.204617 -0.252795 -0.211895 0.235758 -0.054068 -0.480467 0.452210 0.237619 -0.038475 0.022168 0.038591 0.097153 -0.318481 -0.155082 -0.437238 -0.016563 0.092750 0.252754 0.154683 -0.059092 -0.100787 -0.158011 -0.668199 -0.019998 0.166466 0.316770 0.161671 0.425149 0.120807 0.497616 0.359323 0.289799 -0.309909 -0.265986 0.326294 0.200768 0.018716 -0.182087 0.193134 0.142965 -0.273481 0.486749 -0.034423 -0.155155 0.075802 0.080676 -0.108479 -0.461138 -0.073822 -0.271554 0.149477 -0.008080 0.125729 0.133908 -0.153207 0.321712 0.239993 -0.158900 0.007532 -0.456967 0.177716 -0.339534 -0.122410 -0.185099 -0.488718 0.290611 -0.012339 -0.043431 0.185970 0.273135 0.003398 0.079052 0.384118 0.171276 0.452848 0.156330 -0.641474 -0.331245 0.264092 0.282541 -0.276051 -0.354122 0.010542 0.254982 0.549844 -0.226848 -0.000651 -0.204895 -0.112617 0.475416 -0.131628 0.294183 0.032426 0.107901 -0.161369 -0.380157 -0.224679 -0.167804 -0.032525 0.229284 0.179646 -0.275471 -0.155956 0.068618 -0.178102 0.155635 0.487297 0.442791 0.117302 -0.133425 0.128154 0.222749 -0.171165 -0.305838 -0.138242 -0.000163 0.198338 0.039025 -0.081445 -0.090591 -0.180576 0.211695 -0.406347 0.178192 0.341876 0.143715 -0.075447 -0.255597 0.350936 0.314944 -0.135679 -0.147139 -0.202136 0.079475 -0.141194 0.121972 -0.266966 -0.406778 0.408595 0.043930 0.086247 -0.280641 -0.064470 -0.349789 0.096054
of -0.190905 0.030994 -0.061471 0.027603 0.078929 -0.079097 0.189112 -0.015437 -0.106822 -0.108405 -0.161605 -0.087970 -0.011831 -0.062461 0.039659 0.064096 -0.071402 -0.003549 -0.054037 0.146120 0.130067 -0.192970 -0.200992 0.012352 -0.263723 0.076837 -0.058243 -0.002199 0.002538 0.089301 -0.127228 -0.078898 -0.087776 -0.046461 -0.182746 0.242187 -0.082014 -0.030840 0.156064 -0.111943 -0.008360 -0.040177 0.077986 -0.020108 0.091043 -0.118330 0.030298 0.009288 -0.283861 0.173356 -0.230199 0.173851 0.018614 0.194309 -0.223750 0.135964 0.088236 -0.117448 0.114000 -0.042975 0.120752 -0.195664 0.129094 -0.004088 0.112093 0.131036 0.115379 -0.298121 -0.099658 -0.142300 0.301008 0.172964 -0.114842 0.061027 -0.046682 0.083276 0.009818 0.045614 0.136067 0.184300 -0.198704 -0.059937 0.189549 -0.029182 -0.061179 0.001428 -0.142939 0.037258 -0.092121 -0.124426 -0.052208 -0.124401 0.055011 0.014539 -0.032169 0.252898 0.192298 -0.002418 -0.038088 0.032038 0.070602 0.185183 -0.010935 -0.132969 0.093535 0.251551 0.193176 0.013933 -0.338358 -0.161677 0.042033 -0.010742 -0.007340 -0.157408 0.007035 -0.085323 0.066889 -0.144923 -0.121085 -0.131281 0.237262 0.072260 -0.193273 0.065409 -0.063836 -0.080077 -0.084491 0.146351 0.280697 -0.261222 0.065404 0.074581 -0.052688 -0.102705 0.173689 0.045673 -0.034877 -0.044384 -0.149122 -0.058833 -0.079090 0.002114 -0.005165 0.061915 -0.110025 -0.027005 -0.324408 -0.181073 -0.048975 0.074888 0.186577 0.002599 -0.071024 0.018357 0.085617 0.019276 -0.315047 -0.019915 0.109243 -0.015812 -0.180289 0.194646 0.100952 0.100905 0.032046 0.277179 0.095137 -0.040194 0.089467 0.096469 -0.023493 -0.174937 -0.087658 0.051622 -0.163997 0.012307 0.000095 -0.173036 -0.219039 0.155229 0.042397 0.012324 0.156807 -0.041008 0.006044 -0.090309 0.178049 0.048582 -0.101835 -0.022953 -0.164375 -0.045359 0.043955 -0.065666 0.015839 -0.106092 0.050881 0.088059 0.058539 -0.167895 -0.106531 -0.035847 -0.161148 0.066260 0.122641 0.209492 0.216459 0.027982 0.002410 -0.061379 0.110296 -0.018983 -0.007899 0.160451 -0.205482 0.264453 -0.164934 0.209187 -0.248237 -0.078084 0.062242 -0.057263 0.000638 -0.020905 -0.117482 0.013558 0.137185 -0.016620 -0.111289 0.060834 -0.088034 -0.209676 0.031007 -0.068317 0.140703 0.004793 -0.059404 0.005918 0.239911 0.225700 0.021331 -0.012131 -0.074262 -0.386029 0.076912 -0.004087 -0.070337 0.195739 -0.116296 0.051843 -0.253216 0.064580 0.099807 -0.080390 0.167380 -0.197525 -0.057281 -0.079503 0.239050 -0.117058 0.032280 0.032003 0.031636 -0.200184 -0.083868 -0.193571 -0.089310 0.069935 0.063203 -0.166190 -0.166481 0.211177 -0.030972 0.123440 0.048162 0.073027 -0.076434 0.138039 -0.096504 -0.021490 0.285001 0.208432 0.052297 0.304323 -0.194272 0.176903 -0.007362 -0.319781 0.206371 0.209550 -0.050750 0.299878 -0.153169 0.155820 -0.178488 0.239576 -0.169913 0.051424 -0.188376 0.121107
and -0.187516 0.125270 0.003502 0.057210 0.125970 -0.135046 0.117346 -0.010702 -0.012175 0.021539 -0.217311 -0.071493 0.089347 -0.096565 -0.133439 0.036739 -0.106921 -0.008286 -0.001407 0.127324 0.107603 -0.093159 -0.265553 -0.016457 -0.107536 -0.043903 0.015971 0.016161 -0.043940 -0.028997 0.063940 -0.140492 -0.170799 -0.145009 -0.179651 0.251857 0.046560 0.142777 0.163869 -0.095002 0.129534 -0.137874 0.099498 -0.047560 0.050329 -0.071572 -0.057927 0.060866 -0.418285 0.153847 -0.307701 0.254332 0.063000 0.197212 -0.079214 0.282591 0.225962 -0.150198 0.107687 -0.198098 0.263506 -0.167305 0.021737 -0.118545 0.175147 0.120047 0.123271 -0.198628 -0.026451 -0.215155 0.320069 0.061496 -0.048251 0.031722 -0.116017 0.080172 0.134348 0.141670 0.187767 0.108043 -0.149694 -0.045497 0.218996 -0.090605 -0.089298 0.020789 -0.075004 0.010177 -0.218332 -0.165003 -0.000017 0.025386 -0.043907 0.107732 -0.059081 0.340400 0.123871 -0.049319 -0.071386 0.046906 0.124469 0.247618 -0.012472 0.041901 0.033879 0.225618 0.189791 0.019591 -0.363991 -0.251668 0.000454 0.036980 0.054273 -0.123253 -0.001882 -0.030101 0.129487 -0.115024 0.026498 -0.070633 0.147070 0.141844 -0.207757 0.168169 -0.115404 -0.089779 -0.034824 0.027845 0.150690 -0.272331 0.145955 0.185575 -0.192671 -0.077509 0.204517 0.144235 -0.127819 0.073763 -0.082761 0.009386 -0.056727 -0.029498 0.038499 0.041638 -0.034059 -0.102884 -0.374670 -0.230571 -0.099459 0.112197 0.022622 0.006272 0.004133 -0.008106 0.059540 -0.133509 -0.225026 -0.083010 0.176942 -0.040401 -0.126037 0.245180 0.143067 0.102474 0.025974 0.202839 0.035862 -0.095785 0.185990 0.027008 0.040034 -0.122332 0.006137 -0.015851 -0.220579 0.035901 -0.055131 -0.237708 -0.276952 0.223222 0.208398 0.009048 0.135925 0.047676 -0.015689 0.013815 0.225342 -0.108439 -0.113977 0.092068 -0.121491 -0.010309 0.033769 -0.122263 0.158276 -0.105870 0.038974 0.227278 0.004808 -0.152907 0.003295 -0.016651 -0.289883 0.082388 0.032217 0.121973 0.095700 0.043560 0.109428 -0.061107 0.150113 0.008487 -0.116938 0.170834 -0.286518 0.264625 -0.095794 0.139325 -0.188261 -0.172356 -0.003333 -0.036613 0.015684 -0.005800 -0.145358 0.084822 0.105911 0.045962 -0.120826 0.029839 -0.074249 -0.217999 -0.109628 -0.000767 0.221681 -0.105006 -0.065616 -0.021222 0.349130 0.166006 0.038549 -0.023411 -0.221564 -0.255708 0.067568 -0.162552 -0.087049 0.140591 -0.085063 0.011543 -0.359997 0.038678 0.134279 -0.055644 0.138668 -0.073066 -0.023252 -0.088644 0.168468 -0.182980 0.065361 0.159723 0.038004 -0.192521 -0.129115 -0.150654 -0.049786 0.044407 -0.090232 -0.215160 -0.157685 0.125003 -0.050756 0.091990 0.028625 0.005383 -0.050812 -0.015669 -0.114297 0.051367 0.288126 0.104824 0.015982 0.369237 -0.203584 0.104776 -0.020462 -0.220915 0.114604 0.174593 -0.019661 0.198872 -0.154753 0.200403 -0.156392 0.273606 -0.239495 0.021668 -0.227871 0.132503
a -0.187462 -0.003519 -0.026896 0.054006 0.105168 0.006966 0.233596 0.039593 -0.127504 -0.117783 -0.129475 -0.077631 -0.013946 -0.046132 0.128986 0.077859 0.001655 0.052062 -0.011862 0.079425 0.181969 -0.189284 -0.210900 0.040754 -0.327217 0.092163 -0.049842 0.005312 0.015244 0.105635 -0.086024 0.025948 -0.037266 0.004580 -0.233697 0.167462 -0.151250 -0.136518 0.157172 -0.068239 -0.067597 -0.048438 0.051338 -0.079904 0.081590 -0.160171 0.080951 -0.040380 -0.233739 0.238539 -0.209426 0.171234 0.006152 0.256373 -0.226572 0.098244 0.089320 -0.055167 0.157889 0.028464 0.090254 -0.235931 0.120133 0.020039 0.044357 0.114470 0.076082 -0.346003 -0.101909 -0.146460 0.242944 0.080640 -0.185294 0.107478 -0.099812 0.007983 -0.028725 0.072030 0.114723 0.149001 -0.304897 -0.105115 0.181701 -0.065241 -0.106750 -0.001044 -0.144895 0.011963 -0.115285 -0.112311 -0.071241 -0.087558 -0.011597 -0.030854 -0.016124 0.299095 0.257539 -0.073199 -0.006211 0.066128 0.096058 0.192676 -0.009152 -0.191867 0.135405 0.237386 0.245864 -0.027876 -0.347962 -0.268187 0.078028 0.032735 0.030259 -0.147662 0.024196 -0.094369 -0.004227 -0.125825 -0.171615 -0.151728 0.196102 0.065262 -0.161750 -0.011221 -0.073879 -0.130546 -0.090780 0.123911 0.257978 -0.317857 -0.023830 0.058923 -0.062885 -0.136019 0.081845 -0.006904 0.029481 -0.087855 -0.164963 -0.038889 -0.092509 0.075250 -0.044249 0.023495 -0.092188 -0.015036 -0.309762 -0.080091 -0.058567 0.153551 0.178435 0.022362 -0.060804 0.065800 0.099250 0.065824 -0.261232 0.007803 0.052618 0.016938 -0.098704 0.131785 0.049895 0.149759 -0.010421 0.292171 0.101507 -0.026672 0.089595 0.109235 -0.041611 -0.260360 -0.158341 0.056854 -0.117705 0.008111 0.058345 -0.055775 -0.304742 0.155324 0.016662 0.030086 0.101313 -0.078252 -0.085788 -0.149623 0.189008 0.047247 -0.037008 -0.112941 -0.219031 -0.086951 0.096367 -0.114977 -0.002323 -0.084559 -0.015643 0.133137 0.052620 -0.213288 -0.160753 -0.036783 -0.062027 0.095198 0.159453 0.184542 0.221135 0.008355 -0.018536 -0.025790 0.089889 -0.060881 0.038117 0.198753 -0.146266 0.252066 -0.136836 0.253038 -0.217009 -0.044433 0.003063 -0.072085 0.013907 -0.077759 -0.217483 0.014717 0.077349 -0.059072 -0.216523 -0.034099 -0.096937 -0.088635 0.062878 -0.123333 0.137661 0.067981 -0.031582 -0.011110 0.225218 0.137786 0.076114 -0.014699 -0.104101 -0.345973 0.063541 0.034388 -0.103711 0.220601 -0.113255 0.080955 -0.214495 0.097791 0.155881 0.022942 0.107180 -0.245434 -0.033601 -0.110318 0.271089 -0.097659 0.020750 -0.055928 -0.002859 -0.259620 -0.065078 -0.214677 -0.170842 0.089457 0.113843 -0.201677 -0.201241 0.232188 -0.057495 0.107987 0.075098 0.041409 -0.098893 0.200974 -0.104047 -0.050257 0.255452 0.249849 0.089059 0.273508 -0.242481 0.211107 0.024760 -0.288049 0.259273 0.252253 -0.118980 0.361783 -0.111394 0.137495 -0.191810 0.300332 -0.151054 0.100995 -0.181649 0.074485
is -0.185961 0.012039 -0.022299 0.063610 0.196925 -0.020911 0.252640 -0.036751 -0.140917 -0.027723 -0.210259 -0.120793 0.021628 -0.150033 0.138484 -0.033417 -0.063169 0.055880 0.048739 -0.012346 0.298768 -0.177411 -0.293685 0.026546 -0.259563 0.031256 -0.054165 -0.035006 -0.038660 0.020395 0.111085 0.002816 -0.101213 -0.137263 -0.260616 0.167111 -0.081521 -0.070030 0.137617 -0.041867 -0.036990 -0.132761 -0.046762 -0.216704 0.074766 -0.209708 -0.051385 -0.028623 -0.293127 0.336221 -0.264367 0.247484 0.018718 0.317342 -0.133110 0.037302 0.068196 -0.138650 0.131492 -0.047639 0.115081 -0.241173 -0.003127 -0.064233 0.004293 0.181985 0.142538 -0.275713 -0.065258 -0.172720 0.297134 0.050641 -0.140257 0.156009 -0.171225 -0.085306 0.023783 0.091651 0.086658 0.163689 -0.269111 -0.049730 0.154179 -0.073974 -0.063394 -0.045723 -0.069930 0.027069 -0.184758 -0.107034 -0.000855 0.003616 -0.139386 0.053064 -0.063493 0.301698 0.324516 -0.009025 0.095992 0.072268 0.072017 0.245128 0.048616 -0.029163 0.102863 0.195850 0.206789 -0.073628 -0.425359 -0.380061 0.036425 0.086593 0.032879 -0.182143 -0.004854 -0.138545 -0.099835 -0.183097 -0.152947 -0.157316 0.079886 0.117797 -0.208223 0.099144 -0.151758 -0.267697 -0.047021 0.030553 0.145377 -0.442449 0.023422 0.201454 -0.142771 -0.060030 0.086414 0.026608 0.008539 -0.050962 -0.145946 0.113707 0.037568 0.053179 -0.063709 0.038091 -0.017391 -0.041363 -0.436327 -0.074544 -0.118598 0.186356 0.151361 0.046345 0.012305 0.060193 0.104831 -0.097831 -0.192835 0.050929 0.113044 -0.035360 0.048072 0.153081 0.051086 0.185733 0.031827 0.283004 0.022776 0.098571 0.309516 0.112859 0.009630 -0.200352 -0.000203 -0.057142 -0.211083 0.053737 0.053738 0.000976 -0.306954 0.262204 0.092606 -0.020338 0.022853 -0.056122 -0.202296 -0.125648 0.110670 -0.028372 0.019648 -0.016240 -0.228364 -0.014638 0.120260 -0.220788 0.085921 -0.033830 -0.080190 0.170926 0.063253 -0.165156 -0.055460 0.021381 -0.184447 0.170712 0.172823 0.154925 0.113339 -0.039176 0.106772 -0.009778 0.068311 -0.086891 -0.118154 0.197716 -0.178974 0.303962 -0.030381 0.199679 -0.184030 0.015371 -0.081210 -0.161212 -0.018519 -0.163274 -0.319429 0.076202 0.118244 -0.088880 -0.241220 -0.145450 -0.151265 0.010044 -0.008662 -0.131012 0.148704 0.015744 0.064838 -0.003046 0.337988 0.005899 0.078559 -0.025328 -0.141691 -0.293828 -0.108297 -0.045710 -0.190216 0.162779 -0.124023 0.138513 -0.239414 0.114590 0.169982 -0.004239 0.081940 -0.221552 0.039241 -0.137087 0.235602 -0.209438 -0.034603 0.009593 -0.059754 -0.276296 -0.115422 -0.236728 -0.163204 0.102572 0.023979 -0.130521 -0.173577 0.156813 -0.075792 0.158430 0.027662 0.044453 -0.155835 0.141588 -0.218933 -0.032761 0.318566 0.166585 0.160815 0.232731 -0.349195 0.222650 0.052286 -0.087475 0.186561 0.280241 -0.154207 0.269791 -0.038048 0.079233 -0.191527 0.284646 -0.257728 0.027561 -0.193135 0.082993
vaccineswork -0.263189 0.452150 -0.083342 -0.138957 -0.130388 -0.373875 -0.162668 -0.168860 0.130014 -0.096352 -0.142604 -0.063417 0.165736 0.045025 -0.670819 0.259343 -0.270534 -0.241605 -0.243187 0.322320 -0.276632 -0.147124 0.024219 -0.245729 0.257498 -0.281329 0.174380 0.102264 0.100263 0.023774 -0.114783 -0.454334 -0.254597 -0.203343 0.252858 0.371485 0.426402 0.493193 0.271510 0.005406 0.407720 -0.340084 0.290280 0.301635 -0.163172 0.198308 -0.193642 0.250046 -0.586119 -0.223735 -0.374668 0.070406 0.223696 -0.209023 0.085767 0.702196 0.269390 -0.237872 -0.113444 -0.396769 0.682687 0.100158 0.141704 -0.171796 0.351591 -0.167638 -0.007873 0.058543 -0.073698 -0.240341 0.415853 0.166234 0.318659 -0.263712 0.251800 0.311262 0.242593 0.256600 0.416783 -0.014739 0.285630 -0.087657 0.181228 0.025899 0.163381 0.248024 0.002770 -0.086309 0.030379 -0.377205 -0.057308 -0.159515 0.111234 0.378105 -0.117883 0.176490 -0.287674 -0.190481 -0.519748 -0.049124 0.293346 0.121724 -0.023550 0.140386 -0.185914 0.208822 0.070107 0.288036 -0.161379 0.412365 -0.053146 -0.178001 0.254268 0.088105 0.016543 0.160891 0.557313 -0.105522 0.284992 0.221284 0.300464 0.153478 -0.353503 0.257069 -0.063999 0.285615 -0.137440 -0.057346 0.264945 0.274768 0.506445 -0.001165 -0.122976 -0.129520 0.445429 0.454399 -0.378713 0.415079 0.058734 -0.062866 -0.285014 -0.426688 0.275084 0.164929 -0.058737 -0.271380 -0.022306 -0.511222 0.070523 -0.218331 -0.144147 -0.022089 0.013170 -0.098931 -0.084290 -0.213764 -0.281626 -0.215716 0.254711 -0.057939 -0.494929 0.485439 0.252718 -0.032285 0.023397 0.048775 0.097907 -0.330689 -0.137018 -0.431347 -0.015213 0.091656 0.260049 0.154732 -0.081313 -0.096608 -0.166142 -0.699615 -0.038651 0.189363 0.334277 0.159766 0.445256 0.127594 0.497285 0.363399 0.310264 -0.314791 -0.275210 0.348458 0.195114 0.019419 -0.182982 0.184188 0.155538 -0.287445 0.494990 -0.019302 -0.151234 0.062584 0.080534 -0.105428 -0.494427 -0.068541 -0.272527 0.161054 0.006977 0.131743 0.143238 -0.160252 0.337950 0.244938 -0.177814 0.018719 -0.486737 0.205662 -0.350084 -0.111278 -0.205288 -0.507199 0.297177 -0.015049 -0.046959 0.187035 0.263517 0.009158 0.089842 0.388414 0.168193 0.466177 0.149955 -0.673932 -0.348277 0.267836 0.299764 -0.288478 -0.359518 0.007312 0.286854 0.569110 -0.232568 -0.000136 -0.222417 -0.138773 0.482074 -0.152410 0.290524 0.042287 0.098678 -0.161794 -0.410658 -0.227278 -0.163935 -0.044107 0.242827 0.170801 -0.291147 -0.165277 0.083323 -0.193779 0.158211 0.506861 0.451381 0.102486 -0.146393 0.114955 0.225344 -0.168862 -0.315127 -0.153135 -0.013223 0.208679 0.040564 -0.076355 -0.089319 -0.177369 0.212189 -0.409415 0.169575 0.348624 0.170784 -0.068886 -0.252238 0.383252 0.301484 -0.131190 -0.150583 -0.223480 0.092012 -0.126326 0.124526 -0.254712 -0.425328 0.429042 0.031261 0.106163 -0.312008 -0.068914 -0.377458 0.108938
in -0.157575 0.031903 -0.011131 0.046307 0.086070 -0.057903 0.155616 -0.002283 -0.089675 -0.042011 -0.145500 -0.083382 0.017788 -0.056470 0.051237 0.040681 -0.057899 0.030086 -0.019805 0.075105 0.130312 -0.149165 -0.196782 0.017284 -0.204716 0.054968 -0.040578 0.011530 -0.026256 0.039902 -0.027683 -0.006044 -0.064569 -0.065936 -0.174502 0.159953 -0.061795 -0.037944 0.124842 -0.082775 -0.007518 -0.070471 0.036319 -0.079324 0.054673 -0.110361 0.013862 0.001822 -0.241779 0.180667 -0.212216 0.151538 0.016406 0.213072 -0.165414 0.107007 0.092449 -0.095526 0.115818 -0.041638 0.097474 -0.192771 0.048784 -0.034134 0.075298 0.128601 0.085995 -0.264919 -0.067185 -0.131258 0.240066 0.089491 -0.124438 0.063499 -0.090740 0.014493 0.022585 0.062271 0.118847 0.136319 -0.192949 -0.057154 0.154119 -0.065100 -0.076463 0.002016 -0.093420 0.037768 -0.124895 -0.090049 -0.031148 -0.029444 -0.035656 0.026924 -0.028754 0.262535 0.202113 -0.035077 -0.009891 0.043460 0.056720 0.188829 0.014993 -0.090811 0.073723 0.194625 0.182225 -0.002228 -0.306346 -0.220852 0.026454 0.013171 -0.002654 -0.138330 -0.001500 -0.085102 0.036395 -0.122833 -0.084769 -0.116701 0.142427 0.083386 -0.173190 0.045444 -0.068456 -0.107095 -0.063574 0.083256 0.199021 -0.260546 0.025904 0.096029 -0.079845 -0.080216 0.127818 0.033114 -0.031013 -0.038085 -0.130245 0.003911 -0.047831 0.018787 -0.016514 0.028612 -0.078549 -0.017539 -0.315685 -0.133650 -0.060668 0.097762 0.107412 -0.005598 -0.046312 0.022395 0.073892 -0.000928 -0.226362 -0.006020 0.081586 0.010119 -0.081266 0.144664 0.060252 0.094766 0.005771 0.224432 0.058572 -0.027235 0.125977 0.080816 -0.011391 -0.154557 -0.065977 0.015767 -0.155369 0.025793 0.006211 -0.119200 -0.218619 0.145604 0.055133 0.012684 0.100314 -0.016034 -0.069121 -0.073659 0.154332 0.009988 -0.056782 -0.006982 -0.158238 -0.044098 0.071711 -0.103494 0.052701 -0.071593 -0.011718 0.126871 0.048321 -0.168987 -0.094907 -0.022469 -0.140908 0.084841 0.102636 0.142815 0.160509 0.012909 0.055181 -0.038052 0.080874 -0.036728 -0.037459 0.150667 -0.163880 0.223502 -0.108666 0.183632 -0.177144 -0.061127 0.019919 -0.066780 0.004108 -0.049314 -0.159995 0.036085 0.081647 -0.044864 -0.154620 -0.022187 -0.072935 -0.107111 -0.001820 -0.056820 0.109474 0.007228 -0.004093 -0.010688 0.228645 0.124040 0.056916 -0.018831 -0.098684 -0.290280 0.023806 -0.034640 -0.089275 0.141934 -0.093546 0.054372 -0.227120 0.056476 0.113544 -0.015748 0.113564 -0.169767 -0.034940 -0.086176 0.210017 -0.127070 0.005573 0.017786 -0.003479 -0.192255 -0.085458 -0.181073 -0.089495 0.071692 0.031554 -0.169311 -0.148149 0.155789 -0.043034 0.090067 0.038431 0.039328 -0.077972 0.100653 -0.091858 -0.020088 0.237839 0.171117 0.063959 0.259978 -0.194364 0.151156 0.007276 -0.219611 0.165264 0.206016 -0.069211 0.260584 -0.103617 0.143977 -0.144425 0.240215 -0.171636 0.046179 -0.168681 0.082029
that -0.140122 0.028162 0.017942 0.048996 0.138711 -0.069014 0.125863 -0.027871 -0.022416 0.024703 -0.159025 -0.081675 0.028253 -0.063883 0.023514 -0.048679 -0.059569 0.025147 0.035481 0.059021 0.140808 -0.071024 -0.251449 0.031933 -0.115944 -0.012813 -0.000423 0.014173 -0.062372 -0.026337 0.065117 0.005271 -0.093978 -0.156156 -0.227167 0.165030 -0.007692 0.030295 0.110807 -0.129547 0.028626 -0.055615 0.010924 -0.132307 0.084327 -0.110014 -0.040117 -0.001082 -0.277036 0.160161 -0.244614 0.237997 -0.019785 0.196889 -0.125765 0.098301 0.147869 -0.111244 0.144600 -0.125233 0.046493 -0.205557 0.002646 -0.084417 0.097225 0.157663 0.105699 -0.248156 -0.033319 -0.106429 0.238026 0.035459 -0.168664 0.100506 -0.168625 0.023576 0.120687 0.056487 0.057337 0.132744 -0.168781 -0.028420 0.152807 -0.109839 -0.136310 0.010540 -0.065072 0.085970 -0.229867 -0.069076 -0.067361 0.065875 -0.077202 0.041430 -0.086089 0.285764 0.201852 -0.035180 0.040972 0.036346 0.026867 0.168570 -0.007713 -0.002525 0.078692 0.176659 0.158909 -0.002780 -0.344479 -0.301729 0.060070 0.036410 -0.035409 -0.122547 -0.010908 -0.093659 0.068267 -0.082350 -0.036319 -0.145442 0.093271 0.098215 -0.139268 0.120402 -0.104639 -0.129506 0.006543 0.069173 0.123452 -0.366898 0.054822 0.208565 -0.166985 -0.037729 0.170901 0.014902 -0.040592 -0.013985 -0.134511 -0.027291 0.007570 0.080876 -0.003542 0.036779 -0.077173 -0.045581 -0.428690 -0.137519 -0.047381 0.100042 0.032584 0.031274 -0.017809 -0.032372 0.085367 -0.066789 -0.200194 -0.002658 0.105480 -0.001036 -0.006133 0.143690 0.074476 0.036898 0.017995 0.153230 0.015137 -0.053080 0.178207 0.159401 0.057493 -0.147641 -0.049197 0.004461 -0.183591 0.088298 -0.041327 -0.144112 -0.280514 0.195934 0.134131 -0.034467 0.082713 -0.009818 -0.136734 -0.049657 0.140237 -0.048574 -0.030143 0.113716 -0.144577 -0.000745 0.101434 -0.157024 0.126609 -0.077640 -0.050980 0.229528 0.077328 -0.149860 -0.007744 0.007921 -0.193633 0.046773 0.073857 0.044571 0.176179 -0.010737 0.090487 -0.043802 0.079395 -0.059227 -0.062519 0.155257 -0.178779 0.222608 -0.038503 0.155546 -0.166470 -0.097959 -0.056260 -0.050219 -0.000434 -0.078984 -0.206249 0.052658 0.044834 -0.006924 -0.145372 -0.003403 -0.068466 -0.151653 -0.064470 -0.071943 0.127920 0.000937 0.045672 -0.018421 0.261711 0.046519 0.080083 0.004353 -0.137554 -0.229772 -0.010509 -0.146613 -0.147452 0.137283 -0.128366 0.063971 -0.278289 0.054921 0.134088 -0.029866 0.108572 -0.089776 -0.055606 -0.050105 0.176321 -0.161297 0.047795 0.049482 -0.040086 -0.240515 -0.156066 -0.163234 -0.062474 0.079054 -0.026588 -0.174288 -0.156546 0.084152 -0.014763 0.088355 0.060957 0.036819 -0.048934 0.045206 -0.141719 -0.010818 0.274087 0.103584 0.091575 0.306363 -0.232085 0.097514 0.036178 -0.157752 0.102611 0.221753 -0.015922 0.249962 -0.093634 0.121526 -0.167165 0.237775 -0.185414 -0.001659 -0.186764 0.104282
are -0.144250 0.073689 0.018607 0.055701 0.100740 -0.114109 0.059728 -0.022516 0.004379 0.017703 -0.202888 -0.050447 0.050812 -0.068844 -0.077689 -0.008339 -0.090395 -0.005532 0.004006 0.077852 0.088068 -0.067270 -0.228046 -0.013160 -0.058399 -0.046961 0.014305 0.009815 -0.031383 -0.036781 0.082959 -0.081204 -0.155423 -0.152834 -0.145793 0.183589 0.007719 0.113189 0.116968 -0.093050 0.080771 -0.101726 0.056342 -0.070482 0.031473 -0.054591 -0.041754 0.055475 -0.320451 0.099769 -0.251929 0.214627 0.051781 0.152447 -0.065648 0.174485 0.171777 -0.129064 0.093071 -0.169718 0.159833 -0.144987 -0.003086 -0.094402 0.149719 0.099969 0.099978 -0.138710 -0.018615 -0.141059 0.254198 0.074636 -0.058679 0.036765 -0.086207 0.043201 0.112679 0.112008 0.129794 0.099721 -0.060077 -0.021157 0.164734 -0.079299 -0.048838 0.002630 -0.038557 0.047328 -0.190833 -0.108241 -0.011537 0.025826 -0.050596 0.110429 -0.100304 0.251078 0.088624 -0.032974 -0.016727 0.011084 0.061768 0.157232 0.012626 0.062934 0.019521 0.166484 0.144890 0.028755 -0.304923 -0.200665 0.019333 0.020949 0.011094 -0.094528 -0.009824 -0.020086 0.116892 -0.100045 0.015698 -0.086697 0.115303 0.083082 -0.159857 0.144335 -0.096178 -0.063594 -0.018099 0.015629 0.088937 -0.278794 0.109201 0.180215 -0.169404 -0.037402 0.197456 0.090224 -0.062748 0.046246 -0.090782 0.022708 -0.003071 0.005657 0.053462 0.048475 -0.053759 -0.077158 -0.340875 -0.165313 -0.059855 0.081196 0.011191 0.014819 0.000895 -0.043811 0.061958 -0.092923 -0.176008 -0.046648 0.134415 -0.024380 -0.091669 0.195183 0.097525 0.036748 0.017235 0.133584 0.020032 -0.071730 0.186424 0.058221 0.036191 -0.104280 0.053596 -0.012700 -0.178391 0.039446 -0.042836 -0.226123 -0.247675 0.160355 0.172181 -0.009913 0.083986 0.030129 -0.058544 0.011963 0.125818 -0.039219 -0.075166 0.103079 -0.083253 -0.004534 0.020104 -0.094548 0.129999 -0.090187 0.006343 0.159529 0.039922 -0.121749 0.034254 0.027640 -0.207875 0.027223 0.022832 0.064857 0.108383 0.009488 0.106516 -0.055292 0.098406 -0.004611 -0.113075 0.108340 -0.224484 0.227869 -0.045834 0.130437 -0.157703 -0.150708 -0.025811 -0.035040 0.023636 -0.019225 -0.157670 0.050440 0.052446 0.024349 -0.100582 0.031718 -0.071326 -0.168001 -0.071461 -0.008852 0.138326 -0.081512 -0.019094 -0.015476 0.267860 0.094358 0.025779 -0.007597 -0.167655 -0.181579 0.028996 -0.146160 -0.076084 0.104454 -0.086652 0.014487 -0.272717 0.022010 0.088879 -0.028332 0.130943 -0.053705 -0.037433 -0.069956 0.154439 -0.144898 0.035760 0.127622 0.032483 -0.170813 -0.098996 -0.116802 -0.064485 0.061992 -0.075103 -0.173164 -0.137186 0.083366 -0.010057 0.072481 0.036611 0.038102 -0.031903 -0.024811 -0.107236 0.030333 0.236313 0.069649 0.014128 0.297887 -0.166043 0.081366 -0.019673 -0.153483 0.090452 0.163911 0.014224 0.171501 -0.109672 0.130519 -0.118534 0.191576 -0.217486 -0.041769 -0.193953 0.108832
autism -0.126903 0.079208 0.004288 0.027757 0.085531 -0.044772 0.082188 -0.040299 0.009052 0.030174 -0.166653 -0.053003 0.073971 -0.068327 -0.093267 0.034282 -0.089631 -0.019349 -0.022939 0.096849 0.088473 -0.053262 -0.160401 -0.015561 -0.072261 -0.049991 0.016460 0.015787 -0.057034 -0.045975 0.052752 -0.059953 -0.114702 -0.087110 -0.127635 0.175277 0.044348 0.102439 0.098957 -0.066089 0.063458 -0.081581 0.060903 -0.059728 0.021683 -0.053644 -0.045140 0.031887 -0.257604 0.102215 -0.185720 0.181351 0.028687 0.140216 -0.070531 0.153099 0.161749 -0.112016 0.093535 -0.122835 0.155375 -0.120308 -0.031019 -0.084375 0.126409 0.109565 0.080171 -0.120972 -0.015360 -0.125187 0.197122 0.031060 -0.026375 0.054139 -0.085311 0.029897 0.090103 0.064097 0.092113 0.071043 -0.110456 -0.023619 0.156262 -0.052595 -0.077351 0.033523 -0.014258 0.045036 -0.164253 -0.086160 0.011374 0.042604 -0.027780 0.094605 -0.035933 0.233897 0.129819 -0.009118 -0.015913 0.048327 0.077625 0.172070 0.005343 0.030774 0.042066 0.138782 0.113513 0.024148 -0.248368 -0.179187 -0.023176 0.031036 0.028414 -0.085570 -0.024784 -0.021858 0.079853 -0.102399 0.026553 -0.056724 0.066216 0.089724 -0.140747 0.129150 -0.074048 -0.098559 -0.028739 0.032061 0.097162 -0.185203 0.111874 0.138429 -0.121884 -0.044010 0.123001 0.107696 -0.075796 0.065649 -0.008388 0.014912 -0.007232 -0.002385 0.037298 0.029036 -0.014869 -0.057679 -0.242508 -0.161304 -0.056899 0.072418 0.000190 -0.007913 -0.013629 -0.003338 0.054071 -0.057781 -0.139044 -0.054280 0.133182 0.002874 -0.052968 0.165265 0.082356 0.071323 0.013164 0.096925 0.038898 -0.061091 0.139123 0.026684 0.037059 -0.044870 0.005922 -0.009971 -0.141621 0.026746 -0.049155 -0.124063 -0.173178 0.148571 0.125367 -0.005771 0.089316 0.047145 -0.033110 -0.003122 0.164840 -0.089688 -0.023351 0.094753 -0.061141 -0.005845 0.015551 -0.123449 0.118090 -0.063752 0.009317 0.186299 0.001942 -0.116142 -0.004129 -0.013753 -0.223407 0.075557 0.004396 0.071087 0.068922 0.020033 0.082596 -0.024422 0.124304 0.004557 -0.104883 0.128789 -0.189996 0.192357 -0.051959 0.088254 -0.107486 -0.109032 -0.015204 -0.026170 0.004564 -0.006387 -0.085850 0.072965 0.084624 0.018296 -0.062748 0.016891 -0.038629 -0.127186 -0.093859 0.013579 0.164526 -0.057487 -0.025908 -0.016444 0.242548 0.093580 0.025073 -0.013931 -0.145963 -0.173469 0.021361 -0.128940 -0.084573 0.078714 -0.059652 0.018751 -0.251828 0.030073 0.111480 -0.049951 0.060032 -0.048734 0.010150 -0.059571 0.081717 -0.135804 0.019261 0.120769 -0.006970 -0.132186 -0.103894 -0.119140 -0.009424 0.033792 -0.084695 -0.126354 -0.115490 0.080323 -0.011933 0.051450 0.016617 0.000651 -0.046599 -0.001386 -0.085724 0.014452 0.187901 0.027886 0.031758 0.239485 -0.140832 0.036291 -0.028341 -0.126788 0.058641 0.110733 -0.010137 0.135352 -0.114164 0.122473 -0.108746 0.204339 -0.149910 0.030312 -0.161569 0.083167
for -0.180236 0.027533 -0.010423 0.024499 0.064175 -0.052105 0.134047 0.008720 -0.038297 -0.076692 -0.140541 -0.058408 0.000279 -0.046437 0.017444 0.037828 -0.030745 0.002963 -0.027575 0.079267 0.096849 -0.128141 -0.192928 0.012799 -0.160265 0.024555 -0.002883 0.019753 -0.011711 0.055093 -0.044943 -0.030945 -0.092980 -0.063322 -0.177492 0.141883 -0.045735 -0.026324 0.144807 -0.063693 -0.004566 -0.055662 0.064537 -0.037830 0.053611 -0.089214 0.013825 0.002041 -0.258214 0.129130 -0.189081 0.150662 0.043776 0.171614 -0.141230 0.126499 0.098027 -0.082498 0.110009 -0.043933 0.105449 -0.149972 0.071760 -0.039790 0.097345 0.081957 0.091002 -0.209660 -0.066417 -0.139167 0.246849 0.093606 -0.103041 0.061791 -0.048962 0.030397 0.031985 0.059545 0.104200 0.115116 -0.142795 -0.052994 0.152637 -0.064394 -0.048155 0.004393 -0.068712 0.034851 -0.110158 -0.117067 -0.067383 -0.063108 0.012098 0.046411 -0.086978 0.230125 0.163314 -0.053156 -0.047433 0.043634 0.092243 0.139755 0.002217 -0.062296 0.069438 0.193152 0.173476 0.023197 -0.315585 -0.161309 0.050603 0.001799 0.024163 -0.113671 0.032019 -0.060708 0.069370 -0.107396 -0.078136 -0.106381 0.158246 0.075857 -0.160361 0.066137 -0.075271 -0.080031 -0.063591 0.061511 0.183299 -0.249081 0.039092 0.088559 -0.083416 -0.066914 0.153444 0.034248 -0.018938 -0.007032 -0.120498 -0.014330 -0.053021 0.028504 0.025218 0.050547 -0.066274 -0.023951 -0.285976 -0.112156 -0.031879 0.057224 0.087708 0.024315 -0.012659 -0.005903 0.061187 0.004516 -0.211210 -0.005932 0.080386 -0.007274 -0.097492 0.127317 0.060728 0.086158 0.010333 0.204060 0.057024 -0.050453 0.099054 0.062018 0.000340 -0.168041 -0.046319 0.061550 -0.107695 0.026477 0.003257 -0.156568 -0.239470 0.127406 0.065373 0.019493 0.094865 -0.050350 -0.038605 -0.053790 0.115034 0.002108 -0.058897 -0.000886 -0.118356 -0.023221 0.057910 -0.078610 0.049543 -0.103430 0.028293 0.108406 0.043226 -0.122762 -0.045900 -0.032287 -0.131523 0.034254 0.059068 0.120715 0.175548 -0.008579 0.039402 -0.056252 0.097698 -0.045802 -0.013842 0.130144 -0.167786 0.206764 -0.102720 0.168708 -0.160569 -0.101806 0.005695 -0.077350 0.015878 -0.039692 -0.149662 0.027585 0.076656 0.010846 -0.120188 0.031470 -0.058477 -0.140540 -0.003396 -0.061335 0.130292 -0.016186 -0.021330 -0.011640 0.219777 0.136439 0.046266 -0.011926 -0.088033 -0.228956 0.073888 -0.018681 -0.061953 0.138498 -0.083529 0.056300 -0.219562 0.022420 0.106455 -0.007130 0.121618 -0.144250 -0.052592 -0.075872 0.211190 -0.117930 0.026912 0.049883 0.040617 -0.181682 -0.088416 -0.129018 -0.092856 0.050825 0.009160 -0.157979 -0.139734 0.156888 -0.002795 0.073452 0.057033 0.038799 -0.036643 0.048730 -0.097241 0.003378 0.217224 0.124244 0.032281 0.264857 -0.142604 0.116433 0.017295 -0.193880 0.167924 0.181397 -0.058818 0.244274 -0.133545 0.123785 -0.121627 0.222992 -0.155548 0.015239 -0.169426 0.066538
after -0.086496 0.094719 -0.068540 -0.035248 -0.049425 -0.077616 0.017135 -0.011995 -0.030837 -0.112989 0.010961 -0.015655 0.022375 0.040407 -0.120558 0.112986 -0.067053 -0.045321 -0.105153 0.143166 -0.061918 -0.114408 0.027444 -0.044702 -0.095894 -0.006188 0.018420 0.007713 0.086521 0.079061 -0.154850 -0.133204 -0.019802 -0.000813 0.085278 0.145564 0.036196 0.052272 0.110215 -0.029432 0.074939 -0.059940 0.099585 0.097286 -0.016559 0.009488 0.015738 0.047580 -0.164060 -0.025185 -0.105383 -0.002473 0.037556 -0.034630 -0.085895 0.199014 0.040747 -0.040847 -0.016483 -0.039366 0.158624 0.002495 0.121059 0.010945 0.093302 -0.055417 -0.019071 -0.079794 -0.062153 -0.068414 0.132538 0.106756 0.051868 -0.067636 0.106342 0.114729 -0.000328 0.061303 0.134681 0.025985 -0.030040 -0.044911 0.080639 0.015621 0.027962 0.063390 -0.067828 -0.037913 0.062211 -0.139059 -0.027225 -0.145672 0.070155 0.045632 0.027606 0.058441 -0.055334 -0.086940 -0.168229 -0.024489 0.091676 0.052733 -0.018685 -0.086884 -0.002247 0.116640 0.069806 0.090632 -0.051876 0.136464 0.021095 -0.064538 0.068550 -0.009221 0.014536 0.025313 0.145680 -0.030145 -0.007268 0.051247 0.170437 0.017221 -0.096512 -0.000937 0.010448 0.086208 -0.066336 0.074547 0.158096 0.088323 0.113606 -0.066934 0.027726 -0.103484 0.088906 0.105447 -0.066126 0.050614 -0.039382 -0.074629 -0.133831 -0.130746 0.035723 0.050135 -0.080674 -0.047977 0.012065 -0.138235 0.043370 -0.051288 0.049484 -0.027414 -0.050262 0.010241 0.005597 0.011690 -0.178868 -0.049335 0.036759 0.000284 -0.229741 0.163165 0.093367 0.033115 -0.006600 0.112104 0.111072 -0.074604 -0.121902 -0.078553 -0.048027 -0.041247 -0.009177 0.081545 -0.002322 -0.047185 -0.016596 -0.177412 -0.027091 0.059938 0.027652 0.072992 0.173588 -0.011607 0.212927 0.047893 0.137595 -0.034007 -0.090476 0.025919 0.005197 -0.027701 -0.044799 0.087070 -0.019938 -0.094828 0.145445 -0.040367 -0.032764 -0.015104 -0.085118 -0.051902 -0.071551 -0.008193 -0.015692 0.138335 0.078461 0.059552 -0.029908 -0.040908 0.089271 0.052964 0.019300 0.045230 -0.127493 0.090868 -0.177380 0.040410 -0.138837 -0.114013 0.118885 -0.000622 -0.025497 0.043382 0.077952 -0.058382 0.036603 0.097186 0.022898 0.161642 0.021092 -0.232448 -0.038254 0.024753 0.087523 -0.017157 -0.139966 0.003515 0.054777 0.232936 -0.076832 0.016164 -0.028775 -0.165065 0.197413 0.023737 0.081654 0.086646 0.014635 -0.037677 -0.084763 -0.034985 -0.049039 -0.029583 0.116518 -0.036410 -0.097806 -0.062764 0.092856 -0.032370 0.063656 0.050237 0.145228 -0.007022 -0.028381 -0.024664 0.000881 -0.038371 0.016520 -0.036307 -0.031177 0.128827 -0.028768 0.002095 0.007909 -0.018220 0.045916 0.008659 0.069555 0.060586 0.091372 0.089916 -0.047700 0.111146 0.055516 0.054816 -0.050993 -0.177020 0.118116 -0.006004 0.010429 0.015748 -0.141829 0.144027 -0.035356 0.052233 -0.060977 0.037914 -0.122005 0.047203
have -0.098203 -0.030124 0.009701 0.066552 0.116790 -0.014118 0.132030 0.045875 -0.036208 0.057518 -0.116047 -0.027757 -0.007361 -0.086267 0.120553 -0.064648 0.003126 0.025308 0.064340 -0.021338 0.098846 -0.030322 -0.228141 0.054810 -0.073692 0.052075 -0.031076 0.028058 -0.078361 -0.034328 0.068788 0.046256 -0.083993 -0.077274 -0.246687 0.023808 -0.058636 -0.043026 0.079655 -0.051703 -0.012382 -0.010663 0.002760 -0.093028 0.087687 -0.131296 -0.002914 -0.052624 -0.157327 0.144861 -0.121371 0.162070 -0.005290 0.224997 -0.130706 -0.004679 0.103812 -0.056660 0.126345 -0.036620 -0.009985 -0.189343 0.013011 -0.080657 0.067391 0.148332 0.102754 -0.167455 -0.002893 -0.119574 0.180492 0.023348 -0.175349 0.100157 -0.160557 0.009322 0.055840 0.012085 0.024893 0.086479 -0.150294 -0.004776 0.090295 -0.101190 -0.095858 -0.034232 -0.036942 0.098477 -0.233651 0.009129 -0.087084 0.077536 -0.033663 -0.022245 -0.088769 0.208065 0.205835 0.018734 0.063081 0.025146 -0.010046 0.111382 -0.033985 -0.002237 0.056699 0.078205 0.132850 -0.061096 -0.280753 -0.287940 0.050138 0.064797 -0.068697 -0.111032 0.007193 -0.071497 0.016391 -0.069203 -0.032440 -0.154093 0.024751 0.057511 -0.067053 0.078435 -0.092424 -0.110811 0.017396 0.016468 0.050561 -0.341279 -0.035240 0.160060 -0.131233 0.006770 0.114432 -0.032442 0.008541 -0.085706 -0.074867 -0.020780 0.026728 0.134406 -0.018630 0.007208 -0.021846 -0.000175 -0.333002 -0.025712 -0.066046 0.104361 0.050629 0.040772 -0.058461 -0.022873 0.073756 -0.021601 -0.115671 -0.000065 0.072529 0.031713 0.067754 0.003387 0.028008 0.046821 0.013775 0.116491 -0.006728 -0.035328 0.172118 0.135361 0.067263 -0.192267 -0.036499 -0.010360 -0.158137 0.080871 -0.002185 -0.039709 -0.219986 0.094922 0.092436 -0.045047 -0.001269 -0.068448 -0.183270 -0.059042 0.033721 0.037090 -0.025457 0.014991 -0.158670 -0.044676 0.083684 -0.108298 0.136866 -0.017159 -0.053465 0.146830 0.085416 -0.097955 0.043352 0.045092 -0.126836 0.009041 0.082162 -0.003927 0.134640 -0.053838 0.054796 -0.030379 0.052051 -0.073213 -0.042479 0.093233 -0.102654 0.140916 0.012897 0.174814 -0.080579 -0.052570 -0.101406 -0.017588 0.061264 -0.061680 -0.180455 0.064454 0.023230 -0.011290 -0.150287 -0.075780 -0.118508 0.014188 0.027153 -0.050502 0.042691 -0.018608 0.086205 -0.006476 0.226089 -0.027089 0.124427 -0.037053 -0.104963 -0.111528 -0.058249 -0.043023 -0.166167 0.106753 -0.104130 0.062244 -0.193045 0.057681 0.122404 0.020588 0.068011 -0.098050 0.011062 -0.029767 0.134823 -0.083332 0.021925 -0.001962 -0.088288 -0.195183 -0.073800 -0.108560 -0.086748 0.096795 -0.028729 -0.185485 -0.154980 0.041690 -0.006825 0.050955 0.052697 0.071298 -0.114654 0.053497 -0.137092 -0.021596 0.170236 0.097742 0.049375 0.204051 -0.207507 0.079928 0.037932 -0.079260 0.068750 0.162688 -0.000685 0.242588 -0.036784 0.044466 -0.125384 0.186521 -0.070164 -0.017055 -0.068547 0.078579
it -0.090559 -0.012981 0.037894 0.051828 0.128009 0.017914 0.157914 0.012281 -0.071439 0.037073 -0.115725 -0.078814 0.022849 -0.107159 0.134537 -0.042111 0.023449 0.084511 0.080803 -0.062540 0.176865 -0.048580 -0.218025 0.058813 -0.140127 0.010775 -0.013269 -0.025766 -0.050489 -0.007864 0.134123 0.076254 -0.054519 -0.064306 -0.203736 0.027806 -0.048211 -0.044925 0.073030 -0.014862 -0.019638 -0.072878 -0.066720 -0.164473 0.067132 -0.141153 -0.031868 -0.051005 -0.137779 0.224637 -0.106020 0.161997 -0.003916 0.227102 -0.064221 -0.003947 0.057228 -0.033019 0.115909 -0.003136 0.036764 -0.152688 -0.023741 -0.066868 -0.029584 0.128254 0.086384 -0.169226 -0.006781 -0.131010 0.145644 -0.022171 -0.121871 0.144182 -0.171779 -0.087317 0.030239 0.047267 -0.000283 0.055141 -0.206165 -0.026335 0.072476 -0.091100 -0.100736 -0.033155 -0.040184 0.005687 -0.167759 -0.019754 -0.012561 0.051412 -0.112706 -0.006298 -0.050443 0.211721 0.216177 -0.012768 0.110180 0.076566 0.032266 0.149273 0.036247 0.004358 0.073685 0.060267 0.141756 -0.092284 -0.248518 -0.305858 0.026340 0.076275 0.013098 -0.104836 0.002864 -0.081070 -0.096571 -0.074918 -0.078748 -0.109192 -0.015422 0.055516 -0.082557 0.049064 -0.098441 -0.178634 -0.001274 -0.032292 0.004603 -0.321083 -0.047025 0.148564 -0.094204 -0.010405 0.017608 -0.014136 0.033301 -0.054420 -0.063119 0.097169 0.030731 0.083918 -0.053339 0.004429 0.020961 0.003826 -0.282707 0.021121 -0.109617 0.148671 0.028048 0.034185 0.024577 0.039117 0.083921 -0.069079 -0.050341 0.031863 0.066168 -0.015076 0.101176 0.024807 0.011917 0.125714 0.001413 0.142744 -0.000922 0.066689 0.209515 0.068955 0.046816 -0.152727 -0.026596 -0.062223 -0.123550 0.063862 0.031593 0.070249 -0.211321 0.155166 0.077882 -0.035272 -0.050999 -0.060851 -0.223597 -0.086717 0.052030 -0.004361 0.047929 -0.040725 -0.177062 -0.018009 0.100797 -0.168387 0.126771 -0.001316 -0.089185 0.165337 0.045559 -0.097043 0.028424 0.040186 -0.091221 0.105649 0.104003 0.025689 0.042324 -0.058970 0.065810 0.000430 0.007289 -0.087786 -0.047409 0.121912 -0.064174 0.162203 0.030901 0.147934 -0.064473 0.011353 -0.109129 -0.092609 0.023641 -0.117514 -0.228064 0.077718 0.021925 -0.045965 -0.210897 -0.180617 -0.115741 0.102317 0.023218 -0.086176 0.061972 0.014653 0.092332 -0.012044 0.221619 -0.074945 0.115474 -0.041354 -0.114774 -0.087115 -0.104893 -0.035040 -0.152902 0.097662 -0.084999 0.083239 -0.159301 0.085737 0.159053 0.038164 0.004682 -0.116754 0.051880 -0.077722 0.127494 -0.101732 -0.003935 -0.019015 -0.086971 -0.205299 -0.069156 -0.122155 -0.115107 0.069042 0.003749 -0.108457 -0.123277 0.051633 -0.062050 0.082460 0.022323 0.014027 -0.092763 0.058991 -0.164228 -0.022845 0.142198 0.059848 0.111098 0.118830 -0.242409 0.129965 0.068501 0.005965 0.075110 0.159275 -0.108997 0.191469 0.009241 0.011121 -0.101781 0.183975 -0.114323 -0.005611 -0.082580 0.017144
not -0.137629 0.012021 0.051242 0.034720 0.134710 -0.028479 0.106441 -0.017114 0.013597 0.060575 -0.168825 -0.038960 0.026944 -0.090125 0.024372 -0.048213 -0.033815 0.046062 0.053493 -0.024190 0.119252 -0.037982 -0.240160 0.044965 -0.058792 -0.027835 0.006424 0.013081 -0.073635 -0.060152 0.132163 0.041096 -0.136760 -0.142784 -0.229354 0.073338 0.002826 0.024836 0.077662 -0.052515 0.030478 -0.080746 -0.000183 -0.132025 0.061624 -0.130982 -0.037912 -0.019037 -0.228358 0.150675 -0.158145 0.204775 0.022916 0.209010 -0.078595 0.044508 0.139244 -0.065804 0.129945 -0.088535 0.064734 -0.155261 -0.059405 -0.137009 0.103961 0.142565 0.111871 -0.143851 -0.002822 -0.143270 0.191654 -0.001195 -0.102681 0.122943 -0.151032 -0.023960 0.101740 0.026720 0.041595 0.071683 -0.121488 -0.023409 0.110809 -0.127929 -0.109468 -0.000447 -0.009852 0.067081 -0.247221 -0.015316 -0.059720 0.084651 -0.086534 0.072660 -0.121255 0.236492 0.183352 -0.008982 0.052570 0.030223 0.030739 0.127149 0.024096 0.055447 0.047400 0.084149 0.146407 -0.039464 -0.320343 -0.284856 0.035753 0.032519 -0.023365 -0.095143 -0.004393 -0.074401 0.028792 -0.106037 -0.006534 -0.126896 0.022924 0.082283 -0.091271 0.126048 -0.106391 -0.155847 -0.004357 -0.023248 0.009513 -0.342764 0.022214 0.226247 -0.157951 -0.005045 0.135122 0.008179 -0.003077 0.001999 -0.060520 0.040009 0.028697 0.113264 0.005061 0.031896 -0.021418 -0.019457 -0.362221 -0.071901 -0.069284 0.083781 -0.039874 0.038759 0.012044 -0.024542 0.078786 -0.073626 -0.082496 -0.008791 0.101613 0.016607 0.043687 0.068697 0.026840 0.067365 0.012344 0.104800 -0.000629 -0.042453 0.212031 0.083047 0.075616 -0.145059 0.017949 -0.013449 -0.132538 0.060174 -0.023041 -0.086147 -0.251453 0.126698 0.141916 -0.034662 -0.003341 -0.035505 -0.184763 -0.029182 0.050817 -0.043247 -0.005840 0.091346 -0.104880 -0.002277 0.081332 -0.167791 0.169882 -0.050313 -0.037228 0.186519 0.061346 -0.091107 0.081938 0.037976 -0.190199 0.043189 0.030684 -0.014208 0.106000 -0.067412 0.107107 -0.036008 0.077780 -0.082252 -0.091183 0.113641 -0.156381 0.209615 0.021908 0.134230 -0.067598 -0.088996 -0.100208 -0.055824 0.032858 -0.070302 -0.201821 0.079638 0.017380 0.015566 -0.150726 -0.061017 -0.086867 -0.016648 -0.036264 -0.022725 0.108410 -0.038350 0.078026 -0.011822 0.266943 -0.012632 0.098540 -0.035523 -0.130606 -0.073403 -0.043168 -0.101200 -0.156201 0.100187 -0.116491 0.052252 -0.247260 0.038547 0.132168 0.018395 0.072528 -0.086072 0.007890 -0.053234 0.139887 -0.156583 -0.009731 0.062012 -0.046067 -0.200670 -0.133057 -0.099841 -0.062808 0.066270 -0.081625 -0.136797 -0.137643 0.019415 -0.028961 0.043435 0.039387 0.004646 -0.060501 -0.019874 -0.143559 0.002087 0.197918 0.030269 0.054741 0.242950 -0.201143 0.062076 0.027472 -0.013138 0.059141 0.164701 -0.034138 0.195300 -0.061347 0.067346 -0.106369 0.195211 -0.144546 -0.045588 -0.130694 0.054883
has -0.109577 -0.006966 -0.030291 -0.011227 0.103123 -0.047593 0.168832 -0.003659 -0.106318 -0.021449 -0.071731 -0.059573 0.021754 -0.088224 0.109191 -0.044266 -0.096031 0.061260 -0.008134 0.020197 0.103726 -0.132163 -0.148958 0.057469 -0.224656 0.071585 -0.046077 -0.015550 -0.016926 -0.000262 -0.033684 0.029491 -0.053014 -0.093571 -0.146892 0.115908 -0.081988 -0.076295 0.106610 -0.072518 -0.034404 -0.031774 -0.028155 -0.125513 0.067643 -0.180989 -0.027876 -0.071678 -0.186984 0.168815 -0.136560 0.165237 -0.033687 0.190112 -0.218261 -0.014378 0.059281 -0.034145 0.114611 -0.004935 -0.060171 -0.196923 0.034246 -0.050933 0.029460 0.134074 0.090821 -0.242529 -0.065572 -0.112727 0.225997 0.114399 -0.177144 0.116766 -0.083222 0.034134 0.032954 -0.003833 0.003860 0.129734 -0.206682 -0.027235 0.099426 -0.073751 -0.099676 0.015195 -0.075651 0.072245 -0.185024 -0.032614 -0.038356 -0.011161 -0.068002 -0.016546 -0.046268 0.163470 0.205800 -0.007973 0.059300 0.017758 -0.047852 0.145340 0.013145 -0.098723 0.090173 0.133806 0.167575 0.015725 -0.239024 -0.200072 0.101161 0.018899 -0.091659 -0.145188 0.008286 -0.121777 0.035989 -0.076883 -0.073812 -0.130387 0.074492 0.057642 -0.080011 0.092145 -0.061960 -0.135655 0.030515 0.107462 0.095754 -0.271813 -0.015305 0.156177 -0.082528 -0.049941 0.102884 -0.028020 -0.014021 -0.074255 -0.101175 0.000224 -0.038483 0.078058 -0.053653 0.005335 -0.083380 0.016703 -0.355093 -0.101174 -0.053127 0.044199 0.145614 -0.015949 -0.113555 -0.047962 0.089868 -0.006518 -0.224069 0.026733 0.062046 0.036909 -0.027578 0.114336 0.057429 0.071405 -0.000918 0.150841 0.084873 0.011506 0.111234 0.170812 0.023352 -0.208939 -0.018949 0.021825 -0.153932 0.075698 -0.015413 -0.048427 -0.175788 0.166811 0.047090 -0.032523 0.113173 -0.099505 -0.076307 -0.065073 0.056710 0.013730 0.003087 0.115446 -0.162078 -0.019581 0.087814 -0.082908 0.110838 -0.070579 -0.040019 0.103461 0.099697 -0.109486 -0.052229 0.051158 -0.152130 0.043199 0.086854 0.084298 0.200640 -0.029248 0.045853 0.002444 0.045377 -0.109995 -0.033766 0.126566 -0.093800 0.193195 -0.053165 0.196003 -0.165815 -0.002162 -0.040972 -0.066629 0.011725 -0.082470 -0.128124 0.025430 0.049653 0.004514 -0.159875 -0.006139 -0.142070 -0.043767 0.037391 -0.056477 0.061158 0.038818 0.034993 0.026740 0.240829 0.078008 0.034923 -0.055007 -0.073771 -0.204004 0.009090 -0.031538 -0.174727 0.156110 -0.134636 0.054556 -0.201942 0.025133 0.111687 -0.060949 0.111362 -0.158706 -0.041958 -0.074486 0.171973 -0.114452 0.025999 -0.045271 -0.024608 -0.202384 -0.122623 -0.190538 -0.087372 0.105863 0.054323 -0.125132 -0.161672 0.050657 -0.079165 0.058330 0.032619 0.062292 -0.086778 0.147886 -0.128928 -0.020917 0.225460 0.119400 0.089178 0.189088 -0.194229 0.136984 -0.007217 -0.094871 0.146447 0.188379 -0.020817 0.214361 -0.115417 0.068299 -0.116856 0.163609 -0.093852 -0.002483 -0.111359 0.083151
from -0.144704 0.029587 -0.017265 0.041468 0.059026 -0.069352 0.115018 -0.006396 -0.054422 -0.053512 -0.132002 -0.054869 0.010570 -0.050953 0.011807 0.037388 -0.048353 -0.004916 -0.027003 0.093621 0.091501 -0.121789 -0.164113 0.002564 -0.159027 0.034744 -0.019435 0.009536 0.001530 0.034492 -0.039720 -0.053298 -0.072092 -0.073278 -0.133761 0.161604 -0.045617 0.000341 0.123404 -0.080939 0.008402 -0.059461 0.052646 -0.033019 0.055117 -0.082465 0.007032 0.010161 -0.248577 0.126645 -0.204684 0.146073 0.017135 0.156872 -0.137914 0.127984 0.087356 -0.091718 0.088354 -0.064807 0.097871 -0.151903 0.066076 -0.035178 0.092418 0.091002 0.074188 -0.208629 -0.070315 -0.113740 0.224851 0.093807 -0.091046 0.042115 -0.056849 0.037612 0.033730 0.067285 0.103895 0.119808 -0.137029 -0.041872 0.141843 -0.041634 -0.047786 -0.002412 -0.079095 0.032913 -0.110809 -0.101116 -0.040863 -0.042381 -0.002059 0.037932 -0.047477 0.216529 0.139019 -0.041582 -0.031012 0.023845 0.060989 0.152430 -0.004323 -0.063689 0.063189 0.183657 0.145446 0.022462 -0.264403 -0.146451 0.045854 0.017967 0.010292 -0.112223 0.009171 -0.054184 0.063136 -0.095008 -0.066533 -0.087809 0.154681 0.071075 -0.150129 0.057140 -0.062624 -0.051550 -0.043276 0.086183 0.168908 -0.218307 0.052898 0.075593 -0.073939 -0.078346 0.142141 0.045961 -0.037746 -0.013857 -0.112665 -0.015408 -0.051148 0.003832 0.014574 0.039212 -0.085554 -0.035358 -0.271940 -0.135374 -0.038471 0.069542 0.099050 0.005737 -0.038984 0.003167 0.060852 -0.015623 -0.219575 -0.010545 0.090276 -0.014322 -0.108085 0.149717 0.080983 0.068533 0.010358 0.188399 0.062201 -0.036663 0.084715 0.070590 -0.003825 -0.132884 -0.040110 0.029022 -0.126836 0.020586 -0.001333 -0.140723 -0.194876 0.135504 0.070895 0.017633 0.108838 -0.014308 -0.034030 -0.048681 0.144236 0.008750 -0.065638 0.010702 -0.113767 -0.034083 0.046840 -0.074031 0.046881 -0.077160 0.021235 0.103608 0.037855 -0.122299 -0.069157 -0.016114 -0.125549 0.033721 0.082718 0.130759 0.155062 0.022209 0.048228 -0.042052 0.078309 -0.015952 -0.029139 0.118566 -0.155801 0.187294 -0.104975 0.155705 -0.173668 -0.091315 0.018472 -0.059293 -0.003707 -0.030412 -0.122940 0.011799 0.079219 -0.000026 -0.111631 0.031445 -0.063688 -0.155487 -0.002039 -0.052809 0.110347 -0.002785 -0.027923 -0.011720 0.198242 0.128533 0.027705 -0.000906 -0.090800 -0.260743 0.062606 -0.036518 -0.055621 0.130924 -0.070929 0.032220 -0.199614 0.042529 0.077703 -0.028053 0.118823 -0.121292 -0.051017 -0.073181 0.174009 -0.107104 0.035561 0.037259 0.029834 -0.170615 -0.070291 -0.144334 -0.079529 0.060543 0.018276 -0.151585 -0.127936 0.143839 -0.010518 0.077794 0.045668 0.041322 -0.051722 0.066113 -0.091482 0.000815 0.212887 0.136150 0.044364 0.242112 -0.152837 0.118975 0.000636 -0.213167 0.150654 0.166581 -0.033302 0.218255 -0.111578 0.136326 -0.125840 0.184451 -0.148601 0.022965 -0.153415 0.091284
with -0.108127 0.017971 -0.007122 0.049420 0.064640 -0.021766 0.125265 0.004099 -0.070762 -0.036706 -0.113925 -0.064010 0.009894 -0.046187 0.046943 0.029860 -0.019075 0.014434 0.002831 0.042205 0.122413 -0.101119 -0.138673 0.015080 -0.154384 0.038385 -0.030727 0.007812 -0.024102 0.034224 -0.016957 -0.003123 -0.040292 -0.039722 -0.133260 0.118143 -0.056532 -0.045712 0.101308 -0.051938 -0.009708 -0.044425 0.021112 -0.060717 0.048525 -0.079631 0.002629 -0.009025 -0.178441 0.151369 -0.153427 0.111431 0.003463 0.163662 -0.114565 0.075016 0.062543 -0.064128 0.073443 -0.027246 0.065363 -0.150082 0.044406 -0.015500 0.037592 0.094935 0.078316 -0.185010 -0.046441 -0.088804 0.166644 0.056303 -0.099304 0.061368 -0.071818 -0.009478 0.002008 0.041140 0.075000 0.102334 -0.148746 -0.043621 0.110441 -0.040349 -0.050116 -0.007756 -0.074092 0.016080 -0.087673 -0.075477 -0.012229 -0.020269 -0.013315 0.008103 -0.012012 0.186166 0.155083 -0.018688 0.004083 0.039481 0.053045 0.146030 0.000565 -0.057309 0.058501 0.155054 0.131828 -0.003424 -0.226568 -0.170544 0.010461 0.032695 0.004565 -0.103251 -0.000284 -0.057452 0.004883 -0.093889 -0.073596 -0.090031 0.098268 0.063337 -0.118733 0.039374 -0.078687 -0.093184 -0.036585 0.052033 0.141707 -0.214698 0.017252 0.064657 -0.068295 -0.060331 0.061828 0.014061 -0.024271 -0.034803 -0.097864 0.010311 -0.017042 0.019635 -0.009807 0.020219 -0.041497 -0.014139 -0.235931 -0.067883 -0.055551 0.096971 0.099149 0.004097 -0.022221 0.025839 0.042379 -0.017347 -0.159596 0.001859 0.064971 -0.000173 -0.036853 0.099829 0.053397 0.077752 0.020782 0.167741 0.035830 0.001303 0.099090 0.070674 -0.008115 -0.116971 -0.053987 0.005907 -0.121245 0.017401 0.013614 -0.060140 -0.164645 0.107542 0.033859 0.008241 0.051337 -0.015357 -0.059206 -0.057674 0.108230 -0.000407 -0.033636 -0.023056 -0.118844 -0.027961 0.051216 -0.077480 0.026496 -0.043598 -0.022811 0.100088 0.045912 -0.121592 -0.071411 -0.018473 -0.096935 0.059920 0.080755 0.095448 0.107725 0.004844 0.035496 -0.018268 0.055690 -0.018014 -0.027197 0.122319 -0.112863 0.144449 -0.073026 0.134823 -0.128292 -0.033329 0.002151 -0.048729 -0.001703 -0.041235 -0.128170 0.030395 0.068452 -0.039928 -0.116551 -0.036645 -0.062955 -0.056699 0.009835 -0.056643 0.079239 -0.002753 0.001959 -0.002854 0.174422 0.070492 0.049903 -0.013784 -0.078908 -0.214401 -0.001142 -0.019953 -0.071929 0.104406 -0.061120 0.051731 -0.154745 0.057952 0.089410 -0.012314 0.067246 -0.113614 -0.001588 -0.053198 0.145204 -0.090844 0.005924 0.006521 -0.019290 -0.139662 -0.054699 -0.145940 -0.085768 0.054310 0.032976 -0.115953 -0.102940 0.120806 -0.033278 0.084435 0.030104 0.039174 -0.070678 0.085515 -0.073436 -0.017973 0.171071 0.120345 0.057300 0.173399 -0.154390 0.121296 0.019182 -0.161926 0.122944 0.148943 -0.058446 0.193773 -0.064735 0.082187 -0.118250 0.176859 -0.120772 0.034510 -0.112879 0.059985
was -0.083635 0.007906 0.005010 0.011343 0.034012 0.008702 0.113912 0.018521 -0.046224 -0.059339 -0.066598 -0.045737 -0.012648 -0.013842 0.046058 0.050469 0.019469 0.039386 -0.019670 0.019150 0.083617 -0.072775 -0.098695 0.028682 -0.143944 0.014461 -0.004718 -0.000318 -0.000076 0.056267 -0.039750 0.013468 -0.026252 0.003779 -0.090523 0.068415 -0.053199 -0.053830 0.068381 -0.018414 -0.019166 -0.037492 0.016387 -0.039909 0.030679 -0.070427 0.032005 -0.026309 -0.105691 0.110227 -0.067717 0.069030 0.022070 0.113181 -0.082459 0.050331 0.052264 -0.015243 0.070249 0.030270 0.058135 -0.089768 0.052035 -0.005865 0.027032 0.028993 0.040293 -0.139190 -0.042521 -0.073532 0.120435 0.040109 -0.064414 0.065765 -0.031886 -0.021367 -0.007758 0.028335 0.047402 0.046721 -0.126151 -0.048758 0.082486 -0.045400 -0.048660 -0.002769 -0.054315 -0.017048 -0.036136 -0.064062 -0.025707 -0.057283 0.001907 0.001207 -0.039089 0.121863 0.100531 -0.035167 0.000731 0.042782 0.051378 0.083269 0.006657 -0.070911 0.061951 0.092038 0.104064 -0.013196 -0.164063 -0.115607 0.031948 0.011643 0.035536 -0.059188 0.022916 -0.031180 -0.002845 -0.060725 -0.081222 -0.046333 0.090023 0.008346 -0.060004 0.010168 -0.034728 -0.059665 -0.042462 0.025308 0.094394 -0.133346 -0.013192 0.024125 -0.022615 -0.048459 0.021667 0.006477 0.014133 -0.033876 -0.070629 -0.000442 -0.043821 0.030886 -0.016115 0.015486 -0.023516 -0.007831 -0.129860 -0.019474 -0.031874 0.062871 0.057651 0.020197 0.004107 0.036738 0.042208 0.020829 -0.093199 0.000294 0.021336 0.000076 -0.039323 0.051692 0.016736 0.076849 0.002108 0.132098 0.047243 -0.012414 0.035859 0.029170 -0.018844 -0.127696 -0.049826 0.027624 -0.030610 0.001541 0.028009 -0.022276 -0.139151 0.065699 0.021415 0.013365 0.021927 -0.045868 -0.036873 -0.050469 0.066894 0.015427 -0.010166 -0.047201 -0.098837 -0.033366 0.038845 -0.050506 0.014201 -0.035892 0.007545 0.059915 0.017637 -0.079742 -0.049698 -0.015627 -0.032318 0.044444 0.054914 0.068152 0.081923 -0.010048 -0.009487 -0.014208 0.045165 -0.034202 0.029371 0.088054 -0.063731 0.113969 -0.053208 0.113032 -0.084619 -0.035888 -0.000263 -0.042881 0.015897 -0.041333 -0.103083 0.010188 0.024110 -0.005057 -0.097467 -0.030402 -0.051512 -0.029374 0.031421 -0.052832 0.062202 0.035709 -0.014082 -0.016373 0.097678 0.049694 0.036177 -0.019030 -0.045848 -0.120543 0.032683 0.022420 -0.044904 0.098583 -0.053295 0.040543 -0.103799 0.033494 0.067981 0.019849 0.041948 -0.095042 -0.008884 -0.050507 0.127901 -0.043403 0.013229 -0.007407 0.008374 -0.109193 -0.031678 -0.071880 -0.074870 0.026759 0.039017 -0.092919 -0.087245 0.100237 -0.024071 0.041573 0.019106 0.002026 -0.019066 0.069781 -0.062884 -0.017206 0.102162 0.080700 0.044536 0.108263 -0.114761 0.087441 0.014242 -0.103330 0.110124 0.103156 -0.066415 0.146457 -0.050153 0.052967 -0.076366 0.128162 -0.075181 0.020133 -0.086499 0.023476
I -0.046882 -0.035695 0.046372 0.041363 0.079265 0.043726 0.084241 0.025898 -0.017772 0.029791 -0.062393 -0.016322 -0.007543 -0.032550 0.106096 -0.020515 0.065416 0.053662 0.057612 -0.069204 0.082074 -0.000080 -0.126069 0.056487 -0.044154 0.010315 -0.005053 0.009835 -0.036308 -0.003290 0.083556 0.088870 -0.031669 -0.010412 -0.160283 -0.044226 -0.041317 -0.056062 0.024812 0.009585 -0.034463 -0.016301 -0.024222 -0.072530 0.040865 -0.081913 0.017272 -0.040149 -0.028144 0.099859 -0.003085 0.076621 -0.002383 0.117536 -0.032376 -0.028806 0.051105 0.011738 0.086575 0.021822 0.000493 -0.075034 -0.002675 -0.041785 -0.008229 0.065933 0.048811 -0.094235 0.012916 -0.070036 0.047463 -0.051810 -0.099306 0.094961 -0.113100 -0.042294 0.021718 0.004398 -0.013995 0.009557 -0.119325 -0.033691 0.038061 -0.077008 -0.085991 -0.009516 -0.009073 0.024153 -0.111834 0.026691 -0.051159 0.052899 -0.048144 -0.024062 -0.059234 0.124012 0.133328 -0.004371 0.063026 0.041935 0.016102 0.045109 0.007569 -0.017967 0.044498 -0.001770 0.079359 -0.080325 -0.140204 -0.210261 0.017189 0.041733 -0.003094 -0.033439 0.011896 -0.036295 -0.060225 -0.028696 -0.043811 -0.085001 -0.026634 0.012952 -0.002696 0.003216 -0.044372 -0.084416 -0.007055 -0.041506 -0.004907 -0.192182 -0.062828 0.083938 -0.058251 -0.003430 0.008543 -0.039850 0.047557 -0.052119 -0.028677 0.020167 0.020184 0.108690 -0.026980 -0.004055 0.032039 0.008795 -0.131610 0.051207 -0.046385 0.085142 -0.011531 0.044891 0.018579 0.018533 0.041555 0.011869 0.011077 0.008306 0.006411 0.026620 0.083208 -0.054660 -0.033540 0.052922 -0.010692 0.054277 -0.012817 -0.023149 0.090823 0.038645 0.031157 -0.117101 -0.055463 -0.018340 -0.031392 0.035809 0.019823 0.061773 -0.141114 0.037948 0.045118 -0.031138 -0.059134 -0.048747 -0.158047 -0.049417 0.003029 0.013686 0.031222 -0.046118 -0.105185 -0.039771 0.061987 -0.098558 0.071452 0.010253 -0.051373 0.094854 0.026942 -0.054151 0.035400 0.011050 -0.013853 0.030266 0.050341 -0.034069 0.033196 -0.053288 0.004954 0.000256 0.015052 -0.066758 0.013294 0.058482 -0.019094 0.059759 0.046186 0.091104 0.007601 -0.009538 -0.088438 -0.009311 0.053230 -0.059845 -0.136406 0.047705 -0.025674 -0.024061 -0.122111 -0.100439 -0.052354 0.094089 0.029176 -0.033859 0.018707 0.012732 0.068373 -0.013627 0.089644 -0.075287 0.116829 -0.036391 -0.056024 0.018788 -0.057219 -0.004014 -0.078915 0.051798 -0.061692 0.036900 -0.084408 0.053550 0.094587 0.077213 -0.014806 -0.066766 0.034317 -0.027409 0.083293 -0.036624 -0.007716 -0.024657 -0.066918 -0.114718 -0.032063 -0.029429 -0.061817 0.043472 -0.017171 -0.089305 -0.083182 0.017883 -0.008987 0.005293 0.019559 -0.008320 -0.058660 0.017763 -0.067402 -0.031660 0.042958 0.025935 0.051760 0.066115 -0.127386 0.029827 0.049547 0.013103 0.036211 0.073626 -0.049686 0.135088 0.021234 -0.006347 -0.052987 0.112210 -0.021667 0.004262 -0.018733 -0.012351
you -0.073016 -0.058717 0.054566 0.067850 0.135006 0.044305 0.090357 0.021819 0.015730 0.062857 -0.112004 -0.005467 0.021176 -0.057930 0.118454 -0.058242 0.037588 0.059535 0.081984 -0.045931 0.129943 0.021356 -0.192915 0.067884 -0.062393 0.017060 -0.008263 0.000687 -0.071703 -0.041728 0.118215 0.106778 -0.068501 -0.049590 -0.238168 -0.002625 -0.051778 -0.040260 0.031481 -0.042090 -0.043465 0.001373 -0.011614 -0.120280 0.089246 -0.098901 0.010279 -0.032946 -0.068581 0.129563 -0.062184 0.149297 -0.021548 0.177842 -0.069650 -0.044108 0.067096 -0.025932 0.143220 -0.007294 -0.027144 -0.114750 -0.059338 -0.077462 0.019009 0.129641 0.061956 -0.111741 0.021346 -0.075373 0.063997 -0.058377 -0.127311 0.132962 -0.160200 -0.046357 0.050420 -0.017697 -0.019920 0.047230 -0.139025 -0.004024 0.070428 -0.099255 -0.117255 -0.016868 -0.018113 0.067130 -0.191812 0.054278 -0.053530 0.098441 -0.074895 -0.008383 -0.061030 0.180432 0.187437 0.015223 0.099179 0.042187 -0.000432 0.066027 0.006119 0.012385 0.064168 0.029556 0.100066 -0.086848 -0.226173 -0.302069 0.022620 0.038680 -0.036057 -0.076432 -0.009127 -0.073005 -0.067608 -0.050690 -0.045989 -0.129443 -0.033216 0.042952 -0.015926 0.035502 -0.070741 -0.152741 -0.001737 -0.005346 -0.003848 -0.305482 -0.066710 0.166531 -0.094675 0.010757 0.045450 -0.051498 0.061096 -0.040413 -0.043949 -0.000172 0.051304 0.160593 -0.024817 -0.000422 0.001274 0.032240 -0.241270 0.017979 -0.059747 0.102079 -0.034665 0.049053 0.017895 -0.001677 0.060534 -0.003862 -0.006457 0.005764 0.042819 0.026425 0.106587 -0.030931 -0.020956 0.062073 -0.017774 0.075654 -0.024645 -0.022917 0.167405 0.109972 0.058260 -0.105981 -0.079085 -0.018865 -0.077976 0.062145 0.010389 0.041772 -0.199946 0.063740 0.047703 -0.057289 -0.072956 -0.029529 -0.213902 -0.085773 0.021783 0.020759 0.034990 -0.017803 -0.107578 -0.014958 0.089989 -0.155983 0.080339 -0.010800 -0.091129 0.171538 0.045449 -0.084922 0.063603 0.012468 -0.055878 0.047152 0.058093 -0.062727 0.066921 -0.056570 0.027024 -0.011053 0.014277 -0.082762 -0.026593 0.091906 -0.058574 0.120259 0.068925 0.111028 -0.005577 -0.008473 -0.101857 -0.028400 0.037253 -0.068346 -0.186413 0.067781 -0.004554 -0.043772 -0.123691 -0.120043 -0.052946 0.084152 0.003218 -0.046037 0.050438 -0.005356 0.108604 -0.007537 0.152338 -0.084335 0.134222 -0.024705 -0.070586 -0.020291 -0.101701 -0.064551 -0.130467 0.059840 -0.098589 0.053025 -0.122485 0.076510 0.149620 0.036740 -0.005508 -0.094363 0.037785 -0.012370 0.094238 -0.069782 -0.041527 -0.018304 -0.107472 -0.176173 -0.082420 -0.077200 -0.068065 0.060903 -0.025195 -0.085111 -0.110545 0.002280 -0.005650 0.020060 0.055632 0.014839 -0.066077 0.029556 -0.105245 -0.060246 0.096630 0.034355 0.063011 0.133474 -0.197711 0.046476 0.053164 0.000642 0.033693 0.124778 -0.065080 0.211903 0.026524 -0.008891 -0.097933 0.156618 -0.054071 0.002020 -0.029109 0.006644
be -0.133049 0.031127 0.018195 0.027856 0.064779 -0.048199 0.087854 0.022964 -0.009163 0.004155 -0.114823 -0.025953 0.003499 -0.059465 -0.004282 0.027996 -0.011431 -0.010549 0.018718 0.025480 0.038838 -0.062653 -0.173742 0.005997 -0.044799 0.002428 0.000524 0.045267 -0.041649 -0.002610 0.037239 -0.010303 -0.100287 -0.067897 -0.157151 0.062960 -0.011693 0.014417 0.109879 -0.038210 0.021270 -0.060416 0.050853 -0.024476 0.038937 -0.076968 -0.006880 -0.008975 -0.221143 0.099674 -0.161741 0.126346 0.056733 0.159494 -0.088813 0.105075 0.105001 -0.061177 0.091373 -0.070469 0.106517 -0.144793 0.026123 -0.083724 0.106106 0.069684 0.079115 -0.139203 -0.028092 -0.132237 0.196424 0.040266 -0.101308 0.043823 -0.094368 0.014586 0.066203 0.064922 0.095500 0.065145 -0.084174 -0.038255 0.106569 -0.080214 -0.045986 0.003666 -0.035721 0.042151 -0.169860 -0.054545 -0.074625 0.026141 -0.016166 0.043632 -0.087404 0.212272 0.123750 -0.034334 -0.042089 0.025069 0.063048 0.112923 -0.001994 -0.006082 0.044284 0.115193 0.126681 0.000053 -0.250616 -0.155374 0.043409 0.031050 0.007147 -0.078898 0.011514 -0.035885 0.083981 -0.088508 0.004167 -0.089585 0.072510 0.069388 -0.135336 0.070847 -0.075936 -0.057367 -0.021591 -0.007551 0.091479 -0.224224 0.045736 0.091840 -0.107472 -0.039032 0.150037 0.042658 -0.034828 -0.013477 -0.051520 0.003547 -0.035795 0.035121 0.044778 0.034369 -0.039429 -0.032282 -0.252601 -0.075537 -0.040214 0.056490 0.008319 0.026026 -0.038724 -0.017491 0.048525 -0.028433 -0.134984 -0.029033 0.092776 0.016174 -0.031767 0.074766 0.056573 0.055972 0.006291 0.126736 0.034095 -0.069711 0.106819 0.036718 0.048693 -0.148717 -0.017891 0.030255 -0.120801 0.035571 -0.001448 -0.132304 -0.203289 0.091404 0.103925 0.001139 0.063416 -0.024428 -0.085619 -0.018135 0.071861 -0.005709 -0.043500 0.016815 -0.104290 -0.036490 0.043942 -0.081712 0.117697 -0.067395 0.034518 0.114641 0.039942 -0.093869 0.019592 0.009375 -0.151771 0.018329 0.027349 0.051548 0.112404 -0.022105 0.070743 -0.043777 0.096476 -0.025384 -0.046500 0.085911 -0.145240 0.155542 -0.054874 0.136060 -0.096302 -0.115141 -0.034206 -0.039947 0.035077 -0.023683 -0.118025 0.053252 0.033179 0.033865 -0.124011 -0.002340 -0.070285 -0.075449 -0.001693 -0.014835 0.091025 -0.040665 0.010657 -0.029120 0.208249 0.061900 0.066460 -0.021244 -0.116607 -0.118961 0.034123 -0.023310 -0.078495 0.097203 -0.068736 0.038712 -0.202502 0.022108 0.082340 0.029515 0.085584 -0.070405 -0.041234 -0.064443 0.145781 -0.098600 0.042454 0.061988 0.001309 -0.159954 -0.082148 -0.086531 -0.065515 0.044897 -0.062136 -0.180283 -0.110718 0.088664 -0.003661 0.034665 0.026545 0.007789 -0.054808 -0.025196 -0.097590 0.041855 0.156763 0.081675 -0.001079 0.227365 -0.116658 0.058631 0.023228 -0.106259 0.090783 0.128920 -0.016620 0.189048 -0.097743 0.107854 -0.083444 0.185430 -0.113053 -0.026353 -0.124456 0.063396
on -0.128999 0.066871 -0.036788 -0.008506 0.020496 -0.048673 0.064734 -0.019301 -0.030112 -0.072537 -0.078900 -0.037389 0.010459 -0.005052 -0.057623 0.077391 -0.042670 -0.021907 -0.051503 0.074594 0.037740 -0.100856 -0.079874 -0.024749 -0.074303 -0.017932 0.012710 0.007991 0.034670 0.033741 -0.058105 -0.073254 -0.057315 -0.044123 -0.035763 0.124979 0.028180 0.029768 0.099302 -0.017164 0.039776 -0.086785 0.050350 0.015376 -0.001843 -0.033050 -0.012910 0.020828 -0.197415 0.065266 -0.143116 0.077964 0.044777 0.059526 -0.070180 0.140249 0.066423 -0.074922 0.032424 -0.055867 0.150032 -0.064083 0.060236 -0.028299 0.065684 0.020613 0.051500 -0.118475 -0.053397 -0.088937 0.173729 0.060604 -0.013348 0.010322 0.010650 0.036516 0.047794 0.058411 0.099029 0.063005 -0.059961 -0.052399 0.089462 -0.022369 -0.008289 0.035160 -0.051930 -0.013152 -0.036803 -0.114733 -0.034487 -0.062564 0.019568 0.049272 -0.038935 0.125868 0.050746 -0.059577 -0.091135 0.012539 0.096471 0.099225 0.003995 -0.046208 0.018650 0.122863 0.086015 0.035851 -0.167508 -0.029490 0.017229 -0.019398 0.066463 -0.035917 0.012916 -0.019841 0.082340 -0.071264 -0.026637 -0.022144 0.126889 0.055324 -0.114980 0.051258 -0.052513 0.002164 -0.061481 0.032436 0.141674 -0.084541 0.082782 0.027068 -0.046786 -0.058620 0.109756 0.067205 -0.053448 0.037765 -0.059452 -0.021201 -0.084211 -0.052998 0.031169 0.050917 -0.049315 -0.055347 -0.127161 -0.104826 -0.002054 0.006636 0.060056 0.008603 -0.005110 0.006296 0.015652 -0.016868 -0.147741 -0.026701 0.068553 -0.010106 -0.109360 0.133779 0.062234 0.038020 0.017812 0.115094 0.041532 -0.049389 0.023320 -0.025085 -0.033455 -0.088536 0.007730 0.044619 -0.062178 -0.020102 -0.004080 -0.134254 -0.109959 0.098591 0.054173 0.045894 0.104420 -0.013287 0.051837 0.005890 0.106903 -0.051595 -0.056823 0.031025 -0.045322 -0.025368 -0.001180 -0.006332 0.015847 -0.077117 0.083020 0.031697 0.000507 -0.056755 -0.045011 -0.023751 -0.110470 0.021586 0.019489 0.099972 0.086440 0.024382 0.026558 -0.026051 0.090135 0.009266 -0.028501 0.069725 -0.140450 0.125727 -0.093095 0.069421 -0.113470 -0.096317 0.050620 -0.043566 -0.012307 -0.016630 -0.054449 -0.000567 0.043155 0.054711 -0.055423 0.067505 -0.016591 -0.145251 -0.033512 -0.001305 0.100223 -0.027518 -0.059360 0.004028 0.128026 0.144791 -0.018323 -0.010776 -0.070027 -0.152668 0.098121 -0.004206 0.000772 0.079740 -0.029462 0.016663 -0.133899 -0.005329 0.012075 -0.002310 0.085684 -0.067039 -0.058849 -0.058026 0.111007 -0.087729 0.035686 0.074566 0.085641 -0.084648 -0.059944 -0.061404 -0.021216 0.003995 -0.010909 -0.097272 -0.057645 0.115078 -0.006019 0.037501 -0.002759 -0.012688 -0.001325 0.004630 -0.017900 0.047688 0.136103 0.075024 0.005844 0.162049 -0.041570 0.053222 -0.002509 -0.128898 0.116385 0.070552 -0.021254 0.088697 -0.108568 0.121265 -0.065662 0.118434 -0.125192 0.008926 -0.136051 0.051494
as -0.057705 0.039691 -0.024491 -0.019319 0.012949 -0.027304 0.023798 -0.025744 -0.015568 -0.008807 -0.063732 -0.028377 0.018387 -0.027015 -0.068810 0.029489 -0.064731 -0.003232 -0.025218 0.074522 0.019814 -0.044767 -0.050363 -0.002918 -0.048013 -0.002340 0.002499 -0.010899 -0.020020 -0.024866 -0.008492 -0.059931 -0.048387 -0.029402 -0.022422 0.093999 0.018284 0.050613 0.037189 -0.037658 0.024131 -0.023021 0.019699 -0.028180 -0.016386 -0.020604 -0.022065 0.023561 -0.101973 0.043116 -0.088115 0.073604 0.014389 0.041868 -0.014157 0.073842 0.052960 -0.070122 0.014483 -0.036835 0.067957 -0.025320 -0.006384 -0.034282 0.068802 0.032173 0.047382 -0.047548 -0.022101 -0.030302 0.094561 0.043549 0.014305 0.006364 -0.017573 0.026115 0.030318 0.038031 0.044274 0.027374 -0.050716 -0.006238 0.068947 -0.022833 -0.039969 0.007192 0.000906 0.003451 -0.016224 -0.059758 0.020760 -0.005979 0.010145 0.037062 0.006338 0.079070 0.024765 -0.002577 -0.034060 0.021496 0.037433 0.082012 0.010703 -0.005504 0.017676 0.066871 0.022211 0.034607 -0.070270 -0.024683 -0.026710 -0.003349 0.011074 -0.022706 -0.027580 -0.022057 0.046633 -0.042370 0.004987 -0.015670 0.033763 0.041223 -0.058475 0.050449 0.001792 -0.021191 -0.023217 0.032527 0.074557 -0.044332 0.071727 0.042067 -0.024607 -0.014813 0.027931 0.040715 -0.035336 0.035981 0.006968 0.011434 -0.009004 -0.039218 0.019029 0.029271 -0.017811 -0.018257 -0.072534 -0.095025 -0.001976 0.019690 0.025035 -0.041819 -0.027044 0.007420 0.015512 -0.014038 -0.079040 -0.023677 0.040962 -0.020621 -0.060337 0.071977 0.043748 0.020074 0.002656 0.045038 0.024506 0.001310 0.057169 -0.010803 -0.003473 0.023566 0.015578 -0.019631 -0.048986 -0.009876 -0.041486 -0.060972 -0.025332 0.075685 0.033583 0.034601 0.043442 0.014706 0.038522 -0.010007 0.084599 -0.042979 -0.004547 0.042844 -0.002388 0.020495 0.009035 -0.050655 0.036386 -0.031950 0.011795 0.059227 0.011699 -0.043090 -0.015223 -0.006554 -0.108102 0.048509 0.005054 0.088051 0.031063 0.037529 0.042746 -0.015016 0.058240 -0.017705 -0.049845 0.053235 -0.082713 0.073078 -0.044570 0.008716 -0.068056 -0.022692 0.018774 -0.019006 -0.024318 -0.010733 -0.008509 0.016081 0.057401 0.003788 0.014035 0.026280 -0.012435 -0.097356 -0.050238 0.006968 0.060594 0.002973 -0.047282 0.002157 0.079695 0.091162 -0.031384 0.014188 -0.043340 -0.122658 0.024399 -0.051609 -0.028859 0.034895 -0.015713 0.007647 -0.094817 -0.002160 0.032385 -0.052480 0.048374 -0.021225 0.020554 -0.030993 -0.000715 -0.083300 0.014387 0.049887 0.025501 -0.037960 -0.037721 -0.046004 0.019741 0.003687 -0.021135 -0.040165 -0.019071 0.056306 -0.019296 0.048552 0.003021 0.006116 -0.013506 0.015146 -0.023149 -0.014127 0.103178 0.031101 0.022717 0.080802 -0.019735 0.019478 -0.021450 -0.074586 0.009704 0.056289 0.018002 0.038675 -0.046953 0.065018 -0.031952 0.078537 -0.070221 0.015753 -0.066920 0.061791
cause -0.061741 0.076351 0.015584 -0.011810 0.033162 -0.046565 -0.007796 -0.053677 0.051267 0.037021 -0.095031 -0.013951 0.074147 -0.021558 -0.143651 0.017053 -0.090465 -0.034781 -0.043857 0.085666 0.009407 0.001908 -0.067148 -0.030338 0.020057 -0.083967 0.039394 0.009432 -0.033785 -0.064285 0.031271 -0.066993 -0.082083 -0.074416 -0.025751 0.124067 0.096385 0.138609 0.049414 -0.051261 0.075479 -0.059643 0.056239 -0.007557 -0.002162 0.008910 -0.052912 0.037970 -0.172429 0.000423 -0.106263 0.111124 0.024580 0.029206 -0.010279 0.119075 0.113733 -0.079818 0.046607 -0.122600 0.106101 -0.015254 -0.046707 -0.076810 0.104745 0.046870 0.031058 -0.014098 0.006359 -0.052123 0.109115 0.017914 0.028049 0.008083 -0.023331 0.055035 0.098667 0.026215 0.053063 0.027626 -0.012540 -0.000342 0.093887 -0.028003 -0.046948 0.048637 0.023168 0.038591 -0.100238 -0.051670 0.020339 0.046239 -0.019415 0.098635 -0.034983 0.117442 0.016805 -0.000773 -0.035566 0.023167 0.051952 0.078224 0.000002 0.067106 -0.002293 0.060235 0.026936 0.059232 -0.127514 -0.048334 -0.030125 -0.001279 0.014530 -0.022761 -0.022425 0.021010 0.108743 -0.047079 0.076038 0.001468 0.034670 0.065452 -0.084179 0.110312 -0.039716 -0.032536 -0.003128 0.015985 0.025805 -0.042720 0.108286 0.103352 -0.085949 -0.010454 0.117470 0.103159 -0.076845 0.094551 0.022826 -0.008447 0.000636 -0.032405 0.049958 0.022444 -0.007755 -0.046119 -0.113646 -0.139168 -0.002567 -0.000580 -0.053572 -0.011351 0.007179 -0.038198 0.017270 -0.045222 -0.067280 -0.052902 0.102307 -0.001052 -0.054585 0.127312 0.063291 0.009695 0.007778 -0.008758 0.021577 -0.069000 0.060133 -0.006859 0.034174 0.014199 0.045355 0.011744 -0.074770 0.022237 -0.067327 -0.126392 -0.067295 0.074989 0.100326 0.005234 0.077285 0.063565 0.040366 0.058075 0.097186 -0.105510 -0.007652 0.150364 0.037127 0.016859 -0.016467 -0.066739 0.094196 -0.052154 0.024064 0.118740 -0.024651 -0.033745 0.024254 -0.020410 -0.175290 0.023991 -0.063526 0.000552 0.021772 0.022623 0.073953 -0.018110 0.088370 0.023569 -0.088074 0.063224 -0.132841 0.105596 -0.023711 0.001817 -0.039101 -0.109591 0.005718 0.000232 -0.010672 0.035446 0.006173 0.045632 0.041519 0.054251 0.018398 0.069307 0.021465 -0.132972 -0.112613 0.046948 0.122565 -0.065963 -0.034648 -0.011770 0.128954 0.071879 -0.013692 -0.005395 -0.084065 -0.053750 0.031608 -0.124384 -0.035747 0.018220 -0.024168 -0.018393 -0.166020 -0.022307 0.043651 -0.057857 0.033468 0.026049 -0.014483 -0.022914 0.007627 -0.090530 0.024178 0.134607 0.010260 -0.037425 -0.083149 -0.032016 0.045728 -0.004708 -0.106336 -0.047852 -0.038266 0.000716 0.017899 -0.001657 -0.002934 -0.015094 0.016508 -0.066334 -0.026884 0.032965 0.103354 -0.054342 -0.015788 0.154951 -0.032744 -0.035157 -0.029465 -0.046856 -0.007703 0.017129 0.030227 0.007828 -0.098012 0.095093 -0.048781 0.093210 -0.091439 0.004674 -0.104711 0.044712
children -0.078399 -0.009451 -0.012665 0.062476 0.065007 -0.043344 0.100794 0.029009 -0.056660 0.003827 -0.103197 -0.044572 -0.004410 -0.057935 0.070271 -0.021004 -0.032053 0.004183 0.010758 0.046833 0.086355 -0.062735 -0.161727 0.019467 -0.106138 0.052904 -0.037498 0.016523 -0.042043 0.004709 -0.005426 -0.015811 -0.052802 -0.058985 -0.154027 0.093871 -0.053249 -0.020673 0.086781 -0.067478 0.006797 -0.010028 0.021779 -0.055316 0.067204 -0.074501 0.012859 -0.010765 -0.159727 0.110032 -0.130236 0.113160 -0.016216 0.161777 -0.132078 0.045364 0.071144 -0.073632 0.076202 -0.043816 0.013583 -0.157679 0.048551 -0.023169 0.069760 0.117417 0.077713 -0.161583 -0.024325 -0.084107 0.168601 0.073076 -0.120427 0.046638 -0.081137 0.016903 0.014745 0.022197 0.052259 0.096451 -0.114496 -0.000724 0.099736 -0.041893 -0.051507 -0.036544 -0.059110 0.071851 -0.131481 -0.035488 -0.039445 0.002531 0.004917 -0.009294 -0.031949 0.170299 0.133138 0.010907 0.017497 0.010283 0.000768 0.114464 -0.028237 -0.026480 0.040241 0.125731 0.111348 -0.011925 -0.221094 -0.176683 0.020361 0.040236 -0.046305 -0.101986 -0.000369 -0.055074 0.032477 -0.070001 -0.045047 -0.103605 0.089675 0.050054 -0.088496 0.047507 -0.068251 -0.059145 -0.006068 0.065496 0.100138 -0.232600 -0.006822 0.095973 -0.082434 -0.021350 0.090077 -0.007167 -0.009562 -0.061217 -0.100992 -0.018305 0.007386 0.053975 -0.010479 0.005191 -0.043865 -0.001216 -0.256197 -0.066805 -0.050076 0.080664 0.097072 0.005141 -0.045032 -0.011825 0.050145 -0.012790 -0.161685 -0.006990 0.064877 0.002526 -0.018206 0.055727 0.054688 0.032135 0.029786 0.133895 0.012758 -0.015067 0.111734 0.115791 0.016721 -0.124701 -0.032740 -0.011945 -0.141507 0.040751 -0.007061 -0.081241 -0.156263 0.080817 0.052917 -0.015859 0.036095 -0.026619 -0.083526 -0.045171 0.075928 0.038701 -0.057975 0.003120 -0.111405 -0.031643 0.043359 -0.053979 0.059765 -0.029913 -0.038861 0.095314 0.070121 -0.097944 -0.023174 0.014891 -0.089312 0.008386 0.080704 0.059986 0.123671 -0.008298 0.034542 -0.034187 0.035639 -0.021350 -0.027988 0.083786 -0.103633 0.116856 -0.045329 0.138902 -0.125311 -0.048481 -0.019636 -0.014078 0.026211 -0.025953 -0.124260 0.025191 0.051098 -0.029059 -0.094447 -0.021777 -0.077567 -0.066764 0.019670 -0.054064 0.037491 -0.011816 0.028879 -0.001278 0.156738 0.042672 0.066106 -0.014152 -0.062310 -0.186063 -0.016453 -0.040590 -0.092169 0.093479 -0.062810 0.041032 -0.146707 0.049384 0.069392 -0.029335 0.084892 -0.092240 -0.000910 -0.018661 0.126173 -0.065629 0.024272 0.004253 -0.038710 -0.130287 -0.036606 -0.126612 -0.076152 0.077504 0.020245 -0.140328 -0.115882 0.082382 -0.004352 0.077264 0.052443 0.087818 -0.089162 0.077114 -0.085269 -0.018321 0.163368 0.122952 0.041736 0.173849 -0.157099 0.105080 0.011291 -0.156253 0.083361 0.136442 0.005306 0.193661 -0.050053 0.062461 -0.108680 0.139083 -0.082445 0.011089 -0.084680 0.087989
they -0.053952 0.013621 0.044759 0.017387 0.054315 -0.032366 -0.009273 -0.004113 0.056357 0.048312 -0.088748 0.008067 0.037557 -0.022584 -0.054239 -0.007041 -0.027880 -0.007962 0.009472 0.025686 0.013023 0.019123 -0.101031 -0.004861 0.025450 -0.051255 0.028602 0.003044 -0.043380 -0.050337 0.067659 -0.006276 -0.092885 -0.073937 -0.086339 0.044955 0.029616 0.083882 0.036055 -0.044651 0.028430 -0.020148 0.031387 -0.034982 0.027459 -0.004384 -0.024838 0.015758 -0.124441 0.019736 -0.077331 0.101487 0.034816 0.068204 -0.017860 0.056731 0.077510 -0.050461 0.077591 -0.077086 0.052340 -0.032424 -0.051397 -0.069516 0.076159 0.031812 0.036539 -0.008129 0.020806 -0.056637 0.084871 0.008196 -0.036302 0.031777 -0.066358 0.010257 0.090607 0.021774 0.022686 0.023848 0.000029 0.005267 0.068900 -0.048517 -0.034862 0.005135 0.005840 0.032114 -0.124047 0.004384 -0.013936 0.049368 -0.039659 0.062882 -0.059857 0.110364 0.017523 0.006740 -0.000024 0.006342 0.028801 0.028943 0.019643 0.063125 0.006834 0.051263 0.037027 0.018551 -0.130182 -0.101528 0.003506 -0.004361 -0.019716 -0.035898 -0.003281 0.003427 0.066076 -0.033898 0.060562 -0.035332 -0.001099 0.034215 -0.058804 0.066750 -0.032209 -0.045938 0.014254 -0.014846 -0.016661 -0.114448 0.025225 0.116141 -0.082264 0.007815 0.108881 0.035275 -0.012379 0.029026 -0.006705 0.007722 0.021595 0.025080 0.051984 0.026897 -0.010485 -0.003009 -0.132063 -0.051973 -0.009760 0.030577 -0.061605 0.006885 0.017062 -0.050586 0.023472 -0.029727 -0.040133 -0.033410 0.077714 -0.000170 -0.008096 0.059428 0.027643 0.001277 0.003932 0.015531 0.006566 -0.048200 0.091266 0.039373 0.050700 -0.034339 0.019336 0.008004 -0.068054 0.043716 -0.032472 -0.105047 -0.105257 0.034889 0.078098 -0.022274 0.006134 0.040372 -0.060311 0.015373 0.022728 -0.025630 -0.002644 0.077765 -0.001781 0.008897 0.011540 -0.074934 0.086565 -0.043903 -0.010547 0.102892 0.020425 -0.042066 0.068528 0.004355 -0.107924 0.011253 -0.029972 -0.037848 0.034524 -0.017320 0.059927 -0.032494 0.044242 -0.013374 -0.068465 0.036452 -0.086871 0.088271 0.015893 0.043502 -0.001926 -0.088936 -0.025852 -0.006556 0.023245 0.024106 -0.059816 0.047592 -0.002038 0.021613 -0.019900 0.003609 -0.008050 -0.047523 -0.041744 0.006203 0.062561 -0.055933 0.021564 -0.022616 0.088264 0.001681 0.040412 -0.009603 -0.069336 0.008004 -0.019045 -0.082879 -0.051906 0.010251 -0.041757 0.000459 -0.110911 -0.005709 0.057778 -0.013447 0.035978 -0.004859 -0.023166 -0.010946 0.040863 -0.066606 0.007025 0.082164 -0.017615 -0.067643 -0.067714 -0.018142 -0.004129 0.001883 -0.080662 -0.070395 -0.030575 -0.018323 0.029888 -0.005056 0.015054 0.005849 0.008200 -0.073543 -0.049083 0.014593 0.074892 -0.022389 -0.022871 0.144405 -0.057325 -0.012908 0.012093 -0.016619 -0.006017 0.042862 0.016320 0.061452 -0.043111 0.039077 -0.039081 0.072476 -0.078784 -0.053226 -0.058560 0.027794
an -0.042873 0.005320 0.017284 0.023742 0.078196 -0.033365 0.052550 -0.011098 0.003801 0.009568 -0.062943 -0.038415 0.000432 -0.023953 -0.006079 -0.034320 -0.004655 0.014264 0.037921 0.014316 0.061488 -0.006106 -0.112325 0.019285 -0.028836 -0.012315 -0.002315 0.016604 -0.045482 -0.012540 0.062067 0.003579 -0.031700 -0.078882 -0.106957 0.074106 -0.002643 0.013290 0.028112 -0.071234 0.022952 -0.008630 -0.000076 -0.072751 0.046927 -0.029713 -0.021768 0.017611 -0.120259 0.074613 -0.118307 0.101112 -0.018861 0.075301 -0.028895 0.063021 0.081808 -0.038229 0.045095 -0.075667 0.012098 -0.098457 -0.009654 -0.045664 0.045219 0.063941 0.064075 -0.116773 -0.009115 -0.028350 0.080042 -0.002186 -0.098148 0.051060 -0.097613 -0.006219 0.067400 0.031986 0.017425 0.047924 -0.068932 -0.017296 0.063507 -0.062167 -0.081473 -0.012847 -0.044343 0.022613 -0.101261 -0.038607 -0.032437 0.045646 -0.038984 0.006719 -0.032436 0.127990 0.071409 -0.013574 0.017478 0.014421 0.013092 0.066312 -0.000785 0.005720 0.044452 0.086082 0.060572 -0.011985 -0.122704 -0.150448 0.021650 0.021206 -0.004205 -0.050182 -0.014788 -0.062040 0.025816 -0.024624 -0.021639 -0.063394 0.019220 0.045388 -0.044655 0.052390 -0.032369 -0.060054 0.025404 0.020857 0.043175 -0.163295 0.035404 0.090552 -0.083075 -0.019737 0.057328 -0.003288 -0.030185 -0.008951 -0.062251 -0.016126 0.009471 0.039035 -0.003846 0.023380 -0.031707 -0.030260 -0.203810 -0.045592 -0.033701 0.045274 -0.009304 0.017099 0.004647 -0.022285 0.034048 -0.061145 -0.065646 -0.006154 0.044403 -0.010020 0.013275 0.053007 0.038280 0.000780 0.027709 0.062457 -0.015047 -0.025121 0.079084 0.092296 0.035965 -0.050364 -0.036385 -0.014378 -0.087286 0.046678 -0.026012 -0.061588 -0.127870 0.090863 0.068662 -0.025975 0.025845 0.009231 -0.079028 -0.038164 0.064105 -0.041672 -0.031295 0.047624 -0.067444 0.015545 0.058927 -0.080290 0.056859 -0.031739 -0.041760 0.130108 0.036767 -0.076019 0.005957 0.001111 -0.077284 0.015369 0.043541 0.014395 0.066443 0.003689 0.044009 -0.032511 0.029853 -0.032200 -0.009589 0.069508 -0.071355 0.074927 -0.000915 0.045694 -0.070208 -0.031741 -0.038496 -0.015970 -0.009158 -0.038073 -0.104041 0.017943 0.011490 -0.007656 -0.065092 -0.002938 -0.016560 -0.069718 -0.030267 -0.043508 0.052857 0.008555 0.018081 -0.023553 0.098836 -0.006890 0.038787 0.022561 -0.063172 -0.097610 -0.008998 -0.078206 -0.065186 0.053465 -0.061785 0.040409 -0.117765 0.039847 0.066258 -0.012487 0.042844 -0.005419 -0.021392 0.010385 0.063336 -0.064830 0.041278 0.017114 -0.033011 -0.107823 -0.085708 -0.066663 -0.034919 0.037505 -0.012842 -0.082589 -0.053181 0.026159 -0.011221 0.055238 0.026120 0.003861 -0.011883 0.016439 -0.071689 0.006017 0.125464 0.050421 0.054470 0.134259 -0.109477 0.035309 0.030324 -0.068923 0.026541 0.107876 0.003475 0.108815 -0.021835 0.048480 -0.067308 0.106370 -0.071769 -0.005328 -0.084174 0.046945
child -0.049437 -0.021230 -0.006817 0.063047 0.034626 0.028751 0.102102 0.022154 -0.071019 -0.021523 -0.045752 -0.030498 0.003305 -0.020378 0.090211 0.032941 0.013659 0.024028 0.017097 0.010966 0.099588 -0.067447 -0.065027 0.010056 -0.126061 0.067045 -0.036017 0.014955 -0.016449 0.050835 -0.029505 0.034221 0.011706 0.023919 -0.100804 0.047973 -0.085535 -0.086510 0.070180 -0.015987 -0.039959 0.007115 0.013256 -0.034223 0.047317 -0.057839 0.049366 -0.019806 -0.051840 0.105216 -0.062942 0.040536 -0.012893 0.111651 -0.101588 0.017774 0.014091 -0.001337 0.056202 0.033366 0.011641 -0.113468 0.053313 0.037865 -0.000089 0.054677 0.026100 -0.134591 -0.034138 -0.035411 0.057552 0.005861 -0.089268 0.034339 -0.061858 -0.017768 -0.056753 0.020738 0.040365 0.053224 -0.141712 -0.039865 0.074481 -0.009902 -0.033343 -0.010354 -0.057591 0.016954 -0.031772 -0.033355 -0.007243 -0.010092 -0.001434 -0.029029 0.036014 0.124067 0.124196 -0.022074 0.017533 0.028417 0.025397 0.090932 -0.020516 -0.086518 0.050848 0.099960 0.100229 -0.033162 -0.116476 -0.132440 0.007427 0.036310 0.000446 -0.068437 0.004757 -0.033999 -0.042153 -0.053016 -0.076270 -0.074912 0.056943 0.023823 -0.055698 -0.030632 -0.044367 -0.065683 -0.025590 0.049659 0.104134 -0.134470 -0.045316 0.005497 -0.026823 -0.058025 -0.020099 -0.025788 0.020142 -0.067720 -0.074079 0.000555 -0.002973 0.044393 -0.034446 -0.017685 -0.017860 0.005370 -0.108525 0.000151 -0.046146 0.102784 0.093092 0.001632 -0.025023 0.056096 0.023211 0.030980 -0.093535 0.013039 0.004704 0.025546 -0.004056 0.017215 0.012269 0.062922 -0.004195 0.128016 0.028183 0.012733 0.037687 0.057221 -0.015348 -0.090922 -0.099967 0.002885 -0.048835 0.001642 0.045085 0.016440 -0.108673 0.040269 -0.023704 0.006525 0.020729 -0.023394 -0.056954 -0.071533 0.077402 0.029949 -0.008228 -0.101737 -0.101183 -0.040637 0.044635 -0.045127 -0.030456 -0.008094 -0.037317 0.056615 0.032759 -0.103178 -0.094633 -0.019637 0.009800 0.048020 0.084273 0.063615 0.063957 0.009389 -0.010641 0.006121 0.020755 -0.014918 0.016628 0.083317 -0.023684 0.056202 -0.047274 0.098249 -0.080346 0.012938 -0.006610 -0.015162 0.000472 -0.030678 -0.088234 0.019742 0.035339 -0.070571 -0.093434 -0.055528 -0.036182 0.018224 0.039579 -0.061756 0.029751 0.031743 0.004111 -0.002126 0.077551 0.021532 0.054747 -0.001402 -0.033413 -0.150161 -0.014607 0.030818 -0.040243 0.076763 -0.026287 0.038490 -0.047440 0.057933 0.060182 0.018262 0.001189 -0.100929 0.019473 -0.038902 0.096159 -0.029102 -0.003329 -0.064294 -0.039204 -0.075539 0.016564 -0.108834 -0.080756 0.041700 0.076875 -0.073533 -0.073920 0.095264 -0.027724 0.057090 0.046433 0.034493 -0.082570 0.106504 -0.021599 -0.042700 0.074783 0.114107 0.044286 0.074853 -0.108547 0.096357 0.017698 -0.127539 0.090278 0.090767 -0.057994 0.148059 -0.012963 0.029174 -0.090628 0.123129 -0.035251 0.074446 -0.038994 0.022156
